digraph Tree {
node [shape=box, style="filled, rounded", color="black", fontname="helvetica"] ;
edge [fontname="helvetica"] ;
0 [label="Building_HousingUnits <= 8.317\nsquared_error = 490.161\nsamples = 60636\nvalue = 31.047", fillcolor="#fae6d7"] ;
1 [label="building_type_house <= 0.088\nsquared_error = 564.884\nsamples = 25748\nvalue = 45.249", fillcolor="#f7dac5"] ;
0 -> 1 [labeldistance=2.5, labelangle=45, headlabel="True"] ;
2 [label="HeatPump_GroundSource_CurrentTemperature <= 275.0\nsquared_error = 402.273\nsamples = 23201\nvalue = 42.031", fillcolor="#f8ddc9"] ;
1 -> 2 ;
3 [label="Building_HousingUnits <= 3.583\nsquared_error = 239.286\nsamples = 22092\nvalue = 39.656", fillcolor="#f8dfcc"] ;
2 -> 3 ;
4 [label="temp_avg_rolling_3d <= 0.5\nsquared_error = 250.422\nsamples = 10219\nvalue = 46.093", fillcolor="#f7d9c4"] ;
3 -> 4 ;
5 [label="(...)", fillcolor="#C0C0C0"] ;
4 -> 5 ;
334 [label="(...)", fillcolor="#C0C0C0"] ;
4 -> 334 ;
475 [label="HeatPump_GroundSource_CurrentTemperature <= 221.0\nsquared_error = 163.335\nsamples = 11873\nvalue = 34.115", fillcolor="#f9e3d3"] ;
3 -> 475 ;
476 [label="(...)", fillcolor="#C0C0C0"] ;
475 -> 476 ;
863 [label="(...)", fillcolor="#C0C0C0"] ;
475 -> 863 ;
918 [label="HeatPump_GroundSource_CurrentPressure <= 0.5\nsquared_error = 1297.97\nsamples = 1109\nvalue = 89.346", fillcolor="#f0b68c"] ;
2 -> 918 ;
919 [label="Building_HousingUnits <= 3.417\nsquared_error = 402.182\nsamples = 392\nvalue = 59.355", fillcolor="#f5cfb3"] ;
918 -> 919 ;
920 [label="(...)", fillcolor="#C0C0C0"] ;
919 -> 920 ;
935 [label="(...)", fillcolor="#C0C0C0"] ;
919 -> 935 ;
954 [label="Building_HousingUnits <= 2.917\nsquared_error = 1027.104\nsamples = 717\nvalue = 105.743", fillcolor="#eda977"] ;
918 -> 954 ;
955 [label="(...)", fillcolor="#C0C0C0"] ;
954 -> 955 ;
984 [label="(...)", fillcolor="#C0C0C0"] ;
954 -> 984 ;
1021 [label="CDD_US_daily <= 1.5\nsquared_error = 1092.512\nsamples = 2547\nvalue = 74.563", fillcolor="#f2c29f"] ;
1 -> 1021 ;
1022 [label="Building_HousingUnits <= 4.25\nsquared_error = 642.615\nsamples = 1934\nvalue = 87.832", fillcolor="#f0b78e"] ;
1021 -> 1022 ;
1023 [label="HDD_SIA_daily <= 41.5\nsquared_error = 531.824\nsamples = 989\nvalue = 99.875", fillcolor="#eead7f"] ;
1022 -> 1023 ;
1024 [label="(...)", fillcolor="#C0C0C0"] ;
1023 -> 1024 ;
1065 [label="(...)", fillcolor="#C0C0C0"] ;
1023 -> 1065 ;
1124 [label="hp_type_ground_source <= 0.5\nsquared_error = 447.936\nsamples = 945\nvalue = 75.229", fillcolor="#f2c29e"] ;
1022 -> 1124 ;
1125 [label="(...)", fillcolor="#C0C0C0"] ;
1124 -> 1125 ;
1202 [label="(...)", fillcolor="#C0C0C0"] ;
1124 -> 1202 ;
1217 [label="HeatPump_GroundSource_CurrentPressure <= 0.5\nsquared_error = 203.743\nsamples = 613\nvalue = 32.698", fillcolor="#fae4d5"] ;
1021 -> 1217 ;
1218 [label="Building_Residents <= 1.571\nsquared_error = 129.168\nsamples = 316\nvalue = 23.925", fillcolor="#fbece1"] ;
1217 -> 1218 ;
1219 [label="(...)", fillcolor="#C0C0C0"] ;
1218 -> 1219 ;
1224 [label="(...)", fillcolor="#C0C0C0"] ;
1218 -> 1224 ;
1251 [label="Building_ConstructionYear <= 3.25\nsquared_error = 114.086\nsamples = 297\nvalue = 42.032", fillcolor="#f8ddc9"] ;
1217 -> 1251 ;
1252 [label="(...)", fillcolor="#C0C0C0"] ;
1251 -> 1252 ;
1267 [label="(...)", fillcolor="#C0C0C0"] ;
1251 -> 1267 ;
1282 [label="Building_HousingUnits <= 13.65\nsquared_error = 176.294\nsamples = 34888\nvalue = 20.565", fillcolor="#fceee5"] ;
0 -> 1282 [labeldistance=2.5, labelangle=-45, headlabel="False"] ;
1283 [label="building_type_house <= 0.088\nsquared_error = 213.338\nsamples = 14018\nvalue = 26.878", fillcolor="#fbe9dd"] ;
1282 -> 1283 ;
1284 [label="HeatPump_GroundSource_CurrentTemperature <= 377.5\nsquared_error = 156.043\nsamples = 12696\nvalue = 24.99", fillcolor="#fbebdf"] ;
1283 -> 1284 ;
1285 [label="Building_HousingUnits <= 10.383\nsquared_error = 103.849\nsamples = 12221\nvalue = 23.771", fillcolor="#fbece1"] ;
1284 -> 1285 ;
1286 [label="(...)", fillcolor="#C0C0C0"] ;
1285 -> 1286 ;
1489 [label="(...)", fillcolor="#C0C0C0"] ;
1285 -> 1489 ;
1736 [label="building_type_house <= 0.028\nsquared_error = 476.736\nsamples = 475\nvalue = 56.357", fillcolor="#f6d1b7"] ;
1284 -> 1736 ;
1737 [label="(...)", fillcolor="#C0C0C0"] ;
1736 -> 1737 ;
1748 [label="(...)", fillcolor="#C0C0C0"] ;
1736 -> 1748 ;
1783 [label="has_freezer <= 48.5\nsquared_error = 400.692\nsamples = 1322\nvalue = 45.007", fillcolor="#f7dac5"] ;
1283 -> 1783 ;
1784 [label="Building_HousingUnits <= 10.033\nsquared_error = 42.27\nsamples = 284\nvalue = 20.678", fillcolor="#fceee5"] ;
1783 -> 1784 ;
1785 [label="(...)", fillcolor="#C0C0C0"] ;
1784 -> 1785 ;
1794 [label="(...)", fillcolor="#C0C0C0"] ;
1784 -> 1794 ;
1811 [label="heating_curve_gradient_lower <= 0.5\nsquared_error = 292.501\nsamples = 1038\nvalue = 51.663", fillcolor="#f6d5bd"] ;
1783 -> 1811 ;
1812 [label="(...)", fillcolor="#C0C0C0"] ;
1811 -> 1812 ;
1869 [label="(...)", fillcolor="#C0C0C0"] ;
1811 -> 1869 ;
1912 [label="building_type_house <= 0.088\nsquared_error = 106.673\nsamples = 20870\nvalue = 16.326", fillcolor="#fcf2ea"] ;
1282 -> 1912 ;
1913 [label="has_freezer <= 61.0\nsquared_error = 70.695\nsamples = 18779\nvalue = 15.037", fillcolor="#fdf3ec"] ;
1912 -> 1913 ;
1914 [label="is_weekend <= 0.936\nsquared_error = 56.987\nsamples = 18587\nvalue = 14.684", fillcolor="#fdf3ec"] ;
1913 -> 1914 ;
1915 [label="(...)", fillcolor="#C0C0C0"] ;
1914 -> 1915 ;
2308 [label="(...)", fillcolor="#C0C0C0"] ;
1914 -> 2308 ;
2589 [label="Building_HousingUnits <= 18.017\nsquared_error = 215.876\nsamples = 192\nvalue = 49.238", fillcolor="#f7d7c0"] ;
1913 -> 2589 ;
2590 [label="(...)", fillcolor="#C0C0C0"] ;
2589 -> 2590 ;
2595 [label="(...)", fillcolor="#C0C0C0"] ;
2589 -> 2595 ;
2604 [label="hp_type_unknown <= 0.525\nsquared_error = 280.908\nsamples = 2091\nvalue = 27.9", fillcolor="#fae8db"] ;
1912 -> 2604 ;
2605 [label="day_of_year <= 0.5\nsquared_error = 238.858\nsamples = 166\nvalue = 72.697", fillcolor="#f3c4a2"] ;
2604 -> 2605 ;
2606 [label="(...)", fillcolor="#C0C0C0"] ;
2605 -> 2606 ;
2619 [label="(...)", fillcolor="#C0C0C0"] ;
2605 -> 2619 ;
2624 [label="building_type_house <= 0.097\nsquared_error = 96.555\nsamples = 1925\nvalue = 24.037", fillcolor="#fbece0"] ;
2604 -> 2624 ;
2625 [label="(...)", fillcolor="#C0C0C0"] ;
2624 -> 2625 ;
2680 [label="(...)", fillcolor="#C0C0C0"] ;
2624 -> 2680 ;
}