tree
version=v4
num_class=1
num_tree_per_iteration=1
label_index=0
max_feature_idx=44
objective=regression
feature_names=Column_0 Column_1 Column_2 Column_3 Column_4 Column_5 Column_6 Column_7 Column_8 Column_9 Column_10 Column_11 Column_12 Column_13 Column_14 Column_15 Column_16 Column_17 Column_18 Column_19 Column_20 Column_21 Column_22 Column_23 Column_24 Column_25 Column_26 Column_27 Column_28 Column_29 Column_30 Column_31 Column_32 Column_33 Column_34 Column_35 Column_36 Column_37 Column_38 Column_39 Column_40 Column_41 Column_42 Column_43 Column_44
feature_infos=[0:6] [1:12] [0:1] [1:366] [0:3] [0:1] [-11.300000000000001:28.899999999999999] [-8.8000000000000007:37.299999999999997] [-17.699999999999999:22.100000000000001] [0.69999999999999996:23.799999999999997] [0:31.300000000000001] [0:29.600000000000001] [0:10.6] [34:100] [0:77.200000000000003] [-1073.5999999999999:1977.1400000000001] [-11.300000000000001:28.899999999999999] [-10.4:27] [-6.7857142857142856:27] [0:187.5] [0:1] [0:1] [0:1] [0:1] [0:1] [0:1] [0:1] [0:1] [0:1] [0:1] [0:1] [0:1] [0:1] [0:1] [0:1] [0:1] [0:1] [0:1] [36:800] [1:7] [0:4] [0:0.99999966646601623] [0:1] [0:1] [0:1]
tree_sizes=2972 2989 3011 2998 3009 3016 3008 2981 2958 2997 2985 3010 2966 3007 3018 2978 2974 3021 2975 2978 3065 2982 2979 2983 2966 3001 3056 2997 2974 3021 2972 2961 3009 2966 2967 2989 2976 2974 2990 3001 2995 2938 2918 2992 2977 2982 2979 2917 3008 2933 2950 2966 3021 2980 3019 3031 2973 2960 2989 3018 2986 2924 2968 2971 2972 3036 2986 2980 2967 3004 2980 2991 2964 3010 2952 3042 2957 2934 2958 3017 3015 2935 3032 2958 3049 3033 2939 2904 2997 2978 2967 3043 2913 2931 2937 2897 3003 2965 2935 2961 3009 3005 3014 2859 2985 2873 2939 2948 2997 2944 2994 2954 3035 2960 2951 2959 2953 2912 2875 3007 3002 2933 2958 2999 3022 2989 2932 2994 2966 2962 2980 2946 3017 2959 2868 3024 3015 2902 3065 2869 2906 2892 3003 2930 2930 2991 2992 2903 2913 3019 2931 2883 2941 2929 2859 2956 2921 2889 2980 2990 2856 3022 2841 2977 2982 3002 2883 2941 2926 2895 2827 2940 2993 3020 2908 2984 2901 2993 2859 2955 2935 2993 2996 2885 2920 2979 3069 3075 2921 2892 2930 3069 2944 2973 2445 2834 2948 2937 2906 2840 2871 3039 3007 2959 2894 3026 2976 2995 3022 2866 2851 2993 3049 2957 2960 2917 2917 3050 2975 2964 2934 2950 3049 2960 2912 2993 2977 2958 2887 2964 2918 2941 2919 2982 2916 2850 2989 2812 2918 3080 2908 3005 2866 2937 2846 3019 2827 2832 2943 3028 2928 3010 3012 2914 2937 2863 2877 2944 3008 2936 2909 3051 2920 2939 2872 2918 2983 2986 2814 2967 2894 2952 2846 2861 2982 2976 3037 2928 2909 2988 2956 2928 3061 2985 2969 2838 2930 2985 2947 2944 2941 2883 2939 2898 2952 3030 2941 2935 3007 2981 2942 2974 2997 2900 2882 2931 2873 2903 2954 2769 2954 2969 2882 3010 2836 2902 2979 2811 2921 2747 3033 2973 2991 2865 2961 3001 3050 2922 2981 3022 2984 2969 3043 2990 2984 2868 2989 3034 2993 2898 2936 2916 2939 2897 2963 3034 3043 3006 2969 2963 2929 2878 2864 2957 2971 2940 3022 3008 3006 2936 3062 2936 2902 2949 3060 2994 2898 2867 2981 3033 2896 2971 2968 2958 2962 2998 3048 2785 2963 2938 2941 2987 2937 2956 3031 2954 2896 2862 2879 3010 3007 3020 2931 3018 2975 3031 2977 2917 3014 2990 2963 2946 3036 2917 3009 2883 2862 2855 2962 2883 2920 2880 2858 3005 2885 2937 2871 2761 2910 2984 2951 3020 2792 2848 2785 2981 2974 2847 2841 2918 2932 2893 2800 2830 2957 2998 2972 3027 2812 2967 2777 2922 2894 2970 2886 2996 2884 3073 2850 2987 3038 2982 3032 3040 2965 2986 2998 2942 2959 2902 3035 2854 2864 2884 3008 2919 3012 3079 2947 2953 2951 3038 2962 2982 2927 2954 2972 2977 2862 3049 2923 2954 2920 2924 2912 3074 2969 2944 2919 2522 2887 2838 2879 2949 2988 2947 2920 2830 2851 2856 2974 2978 3112 3022 2949 2904 2968 2977 2898 2942 2891 2949 3017 2916 2828 2905 2930 2842 2923 2932 3022 2929 2927 2898 2932 2883 2987 2954 2870 3028 2899 3010 2794 2947 2840 2849 2864 2868 2834 2939 2926 2873 2772 2956 2950 3054 3013 3092 2904 2983 2998 2967 2987 2999 2852 3045 2844 2922 2944 2971 2990 3074 2958 2947 2922 2945 2934 2998 2873 2883 2912 2897 2861 2963 2903 2927 2796 2917 3023 2963 2852 3020 2831 2866 2953 2931 2809 2918 2854 2983 2929 2907 3017 2881 2958 2813 2918 2924 2978 3004 2802 2955 2980 2935 2850 2886 2860 2945 2915 2764 2943 2978 2940 2883 2795 2946 2919 2932 2991 2856 2881 2909 3021 2984 2969 2881 2872 2877 2910 2884 2868 2973 2972 2803 2903 2965 2959 2894 3006 2882 2947 2933 2928 2809 2881 2858 2858 2985 2804 2957 2972 2901 3019 2972 2835 2840 2858 2909 2939 2853 2843 2958 2961 2805 2955 2832 2859 2786 2837 2915 3021 2920 2969 2907 3013 3025 3019 2836 2935 2904 2982 2845 2876 2921 2839 2860 2829 3018 2828 2884 2864 2816 2947 2779 2943 2820 2880 3014 2960 2940 2817 2793 2961 2923 2840 2855 2879 2935 2897 2950 2982 2935 2937 2944 2942 2905 3041 3009 2948 3017 2945 2901 2941 2910 2979 3002 3003 2917 2881 2930 2885 2976 2870 2820 2822 2985 2924 2912 2869 2929 2890 2840 2856 2865 2891 2826 2842 2918 2872 2911 2945 2864 2936 3021 2981 2923 2884 2965 2816 2865 2777 3062 3035 3002 2921 3016 2991 2962 2887 3015 2951 2955 2870 2909 2956 2804 2991 3071 2871 3006 2845 3046 2975 3056 3014 3034 3009 2806 2869 3046 2967 2969 3057 3045 2922 2982 2984 2939 3016 3059 2901 2927 2911 3067 2851 2969 3013 2962 3092 2940 3012 3019 2970 3053 2957 2893 3070 2965 2910 2946 2909 2968 2997 3016 3011 2990 2925 2936 2945 2858 2970 2959 2937 2924 2835 2923 2902 2931 2952 2929 3050 2843 2883 2991 3034 3008 2920 2965 3013 2940 2948 2842 2932 2887 3033 2942 2870 2816 2909 2882 2842 2819 2922 2983 2801 2854 2852 2857 2898 2982 2767 2887 2963 2803 2853 2907 2888 2992 2807 2918 2861 2902 2961 2825 2975 3065 2879 2803 2831 3032 3013 3037 2992 3004 3034 2966 3070 2976 3053 2892 2890 3010 3021 2960 2927 2908 2934 2878 3020 2797 2997 2991 2998 2938 2944 2871 2843 2934 2984 2897 2862 2953 2994 2953 2839 2954 2873 2955 2993 2984 2814 3011 2843 3008 2838 2997 2939 3031 2933 2912 2913 3001 2924 2966 2970 2815 2903 3004 3087 2926 2981 2971 2985 2936 2818 2973 2940 2954 2913 2945 2955 2830 2871 2956 2933 2959 2947 3073 2912 2871 2834 3007 2967 2893 3067 2988

Tree=0
num_leaves=31
num_cat=0
split_feature=18 38 18 18 38 38 26 38 42 30 38 29 34 23 38 34 38 22 24 41 38 29 38 38 36 30 37 24 38 41
split_gain=6.22326e+07 1.49739e+07 8.11164e+06 6.85599e+06 3.92244e+06 3.78938e+06 3.0282e+06 4.20928e+06 1.2773e+07 2.81387e+06 2.49161e+06 2.032e+06 1.63265e+06 1.55706e+06 1.23727e+06 1.1466e+06 1.07749e+06 1.26738e+06 1.01398e+06 826606 807303 701274 678117 645797 644988 640653 625094 575712 573906 547413
threshold=7.8785714285714308 322.50000000000006 12.678571428571432 4.4928571428571447 302.50000000000006 327.50000000000006 1.0000000180025095e-35 375.00000000000006 1.0000000180025095e-35 1.0000000180025095e-35 166.50000000000003 1.0000000180025095e-35 1.0000000180025095e-35 1.0000000180025095e-35 166.50000000000003 1.0000000180025095e-35 435.00000000000006 1.0000000180025095e-35 1.0000000180025095e-35 0.93795628708703827 166.50000000000003 1.0000000180025095e-35 515.00000000000011 164.50000000000003 1.0000000180025095e-35 1.0000000180025095e-35 1.0000000180025095e-35 1.0000000180025095e-35 216.00000000000003 0.91890954976323724
decision_type=2 2 2 2 2 2 2 2 2 2 2 2 2 2 2 2 2 2 2 2 2 2 2 2 2 2 2 2 2 2
left_child=1 3 5 10 12 15 11 8 9 -8 25 22 20 18 -5 23 17 -9 -12 -14 -4 -7 -3 -2 -24 -1 -6 -16 -15 -17
right_child=2 6 4 14 26 21 7 16 -10 -11 13 -13 19 28 27 29 -18 -19 -20 -21 -22 -23 24 -25 -26 -27 -28 -29 -30 -31
leaf_value=29.791371853320999 27.94695859503986 32.131510437166504 27.0461537887521 28.432619162122716 26.724475675606783 31.162036446889449 32.965145608714217 41.596930839877004 30.334816366488639 56.226296866669216 30.583980165361183 26.487098827247493 26.595523441161607 29.424212291065995 29.092298249979439 27.468022572631639 31.34640400687605 33.850223517994877 37.550276829459193 27.311281546177675 27.524266867290496 26.328605892652114 30.073308997771811 28.505072710471506 35.708231653522972 29.111627615279229 29.413927075832095 34.902498692041831 30.246579626209005 28.16418953666782
leaf_weight=22745 34884 3957 60882 46329 956 4690 60 280 498 412 46028 563 64719 22232 65534 36115 1078 864 209 21501 84126 320 248 51103 1140 35527 8921 170 13731 16436
leaf_count=22745 34884 3957 60882 46329 956 4690 60 280 498 412 46028 563 64719 22232 65534 36115 1078 864 209 21501 84126 320 248 51103 1140 35527 8921 170 13731 16436
internal_value=28.3656 29.5555 27.5563 29.4119 27.202 28.1515 33.5406 36.0224 41.5167 53.2853 29.8772 32.1986 27.1186 30.2318 28.8284 28.0537 33.6191 35.7562 30.6157 26.774 27.3235 30.853 32.8004 28.2786 34.7034 29.377 29.1535 29.1074 29.7382 27.6857
internal_weight=646258 261605 384653 252505 241105 143548 9100 3192 970 472 140472 5908 231228 82200 112033 138538 2222 1144 46237 86220 145008 5010 5345 85987 1388 58272 9877 65704 35963 52551
internal_count=646258 261605 384653 252505 241105 143548 9100 3192 970 472 140472 5908 231228 82200 112033 138538 2222 1144 46237 86220 145008 5010 5345 85987 1388 58272 9877 65704 35963 52551
is_linear=0
shrinkage=1


Tree=1
num_leaves=31
num_cat=0
split_feature=16 38 16 38 17 35 26 38 30 38 38 23 41 38 29 35 38 36 29 36 16 26 38 38 36 29 38 26 38 39
split_gain=5.36574e+07 1.27803e+07 7.62844e+06 5.60439e+06 4.35347e+06 3.47834e+06 4.52509e+06 5.51782e+06 6.19019e+06 1.7153e+06 1.57851e+06 1.3745e+06 1.30874e+06 1.14967e+06 958922 1.03306e+06 1.09175e+06 856470 792854 779915 762178 729581 889854 699379 565615 563665 560486 487298 459029 679734
threshold=8.7500000000000018 322.50000000000006 2.6500000000000008 302.50000000000006 13.41666666666667 1.0000000180025095e-35 1.0000000180025095e-35 387.00000000000006 1.0000000180025095e-35 216.00000000000003 166.50000000000003 1.0000000180025095e-35 0.96795739545837378 515.00000000000011 1.0000000180025095e-35 1.0000000180025095e-35 515.00000000000011 1.0000000180025095e-35 1.0000000180025095e-35 1.0000000180025095e-35 6.1333333333333337 1.0000000180025095e-35 387.00000000000006 166.50000000000003 1.0000000180025095e-35 1.0000000180025095e-35 166.50000000000003 1.0000000180025095e-35 231.50000000000003 1.5000000000000002
decision_type=2 2 2 2 2 2 2 2 2 2 2 2 2 2 2 2 2 2 2 2 2 2 2 2 2 2 2 2 2 2
left_child=1 2 9 4 23 13 25 8 -8 11 -4 26 -9 18 15 16 -5 -18 -3 -6 27 -17 -23 -2 -15 -7 -1 -12 -21 -30
right_child=3 5 10 14 19 6 7 12 -10 -11 20 -13 -14 24 -16 21 17 -19 -20 28 -22 22 -24 -25 -26 -27 -28 -29 29 -31
leaf_value=1.3930826534648988 -0.70486151419370158 2.8675495451241129 0.12108450258624376 0.0055298264592486164 -1.5099729199170573 3.986843492499363 4.2464190425099551 4.4643738459574074 24.821075044829271 2.3542368176847419 0.80771411373597712 0.86283244330096276 12.0845440162987 1.478065568695957 -2.1004867133311715 1.2457998827609917 -2.2376028888618822 3.6736053993782747 -2.0882733592382428 -1.1299827351722112 0.45573459029766888 5.797743675234309 2.0728600454613297 -0.24204657448022415 6.6068058170151689 -1.1547986483115416 2.0648323007480327 1.4781934671380084 4.253798442647077 -0.73392660764413797
leaf_weight=27585 55790 4686 68655 6717 48931 1195 221 873 434 22341 34896 32739 304 262 886 2911 290 1562 346 139018 46652 1053 1643 78727 1216 259 22614 15728 275 27449
leaf_count=27585 55790 4686 68655 6717 48931 1195 221 873 434 22341 34896 32739 304 262 886 2911 290 1562 346 139018 46652 1053 1643 78727 1216 259 22614 15728 275 27449
internal_value=1.31034e-05 1.03885 0.910675 -0.799219 -0.880457 4.58715 7.23929 10.5442 17.8961 1.57649 0.488223 1.36697 6.44113 3.24755 1.0895 1.28901 0.598349 2.74728 2.52644 -1.15891 0.747337 2.34422 3.52933 -0.434 5.69927 3.0708 1.69573 1.01605 -1.05588 -0.684301
internal_weight=646258 281006 271210 365252 350190 9796 3286 1832 655 105279 165931 82938 1177 6510 15062 14176 8569 1852 5032 215673 97276 5607 2696 134517 1478 1454 50199 50624 166742 27724
internal_count=646258 281006 271210 365252 350190 9796 3286 1832 655 105279 165931 82938 1177 6510 15062 14176 8569 1852 5032 215673 97276 5607 2696 134517 1478 1454 50199 50624 166742 27724
is_linear=0
shrinkage=0.1


Tree=2
num_leaves=31
num_cat=0
split_feature=17 38 17 38 17 35 26 38 32 38 34 38 34 23 41 34 35 37 38 32 39 38 38 38 26 41 38 29 38 24
split_gain=4.36256e+07 1.02175e+07 5.7077e+06 4.83117e+06 4.10749e+06 2.80657e+06 3.64898e+06 4.45019e+06 4.91719e+06 1.35019e+06 1.34662e+06 1.3128e+06 1.11773e+06 1.08174e+06 1.01815e+06 987735 968615 1.34121e+06 1.148e+06 1.85169e+06 1.13051e+06 943822 877262 719720 679164 665286 632350 621729 523700 522820
threshold=8.1166666666666689 322.50000000000006 2.7000000000000024 327.50000000000006 12.816666666666668 1.0000000180025095e-35 1.0000000180025095e-35 387.00000000000006 1.0000000180025095e-35 217.50000000000003 1.0000000180025095e-35 217.50000000000003 1.0000000180025095e-35 1.0000000180025095e-35 0.97091541698726203 1.0000000180025095e-35 1.0000000180025095e-35 1.0000000180025095e-35 355.00000000000006 1.0000000180025095e-35 4.5000000000000009 515.00000000000011 515.00000000000011 750.00000000000011 1.0000000180025095e-35 0.93865051218509865 164.50000000000003 1.0000000180025095e-35 534.00000000000011 1.0000000180025095e-35
decision_type=2 2 2 2 2 2 2 2 2 2 2 2 2 2 2 2 2 2 2 2 2 2 2 2 2 2 2 2 2 2
left_child=1 2 9 4 15 22 -7 8 -8 13 26 12 24 29 -9 -2 21 -18 19 -19 -20 -5 27 -23 -4 -12 -6 -3 -24 -1
right_child=3 5 11 16 10 6 7 14 -10 -11 25 -13 -14 -15 -16 -17 17 18 20 -21 -22 23 28 -25 -26 -27 -28 -29 -30 -31
leaf_value=1.5283297084468002 -0.10875648664600067 2.6471269983171144 0.35042448959485539 0.00080608279423014222 -1.082283581137675 2.8105261911521162 22.636869195861095 4.1422000616368058 3.8520552800950547 2.1531616823394129 -1.4928539222107784 1.0340707964652651 -0.056538548069643729 0.79810015566869064 11.043031871318817 -0.6691987303816993 -1.7212856671226762 9.7336867186442628 0.83173582647305011 1.3663506382599246 5.4298397627839234 3.3631725960478152 8.9605768020210395 -1.9586303329625669 0.96815728886553609 -0.84874915503102211 -0.65712779266378429 -1.87740798464582 4.1908071734519323 5.9833851141299839
leaf_weight=47827 82895 4498 52050 6569 59461 1385 420 840 209 21199 64386 33942 46404 31379 287 50668 676 576 2047 489 723 1611 290 301 27047 21361 85001 325 1128 264
leaf_count=47827 82895 4498 52050 6569 59461 1385 420 840 209 21199 64386 33942 46404 31379 287 50668 676 576 2047 489 723 1611 290 301 27047 21361 85001 325 1128 264
internal_value=2.34399e-05 0.971488 0.854538 -0.694852 -0.762526 4.21345 6.65131 9.67731 16.4112 1.44406 -1.01848 0.482316 0.333086 1.25488 5.90779 -0.321367 1.1999 2.38367 3.10752 5.89667 2.03342 0.570057 2.98564 2.52479 0.561666 -1.33241 -0.832129 2.34191 5.17192 1.55291
internal_weight=646258 269494 260112 376764 363772 9382 3141 1756 629 100669 230209 159443 125501 79470 1127 133563 12992 4511 3835 1065 2770 8481 6241 1912 79097 85747 144462 4823 1418 48091
internal_count=646258 269494 260112 376764 363772 9382 3141 1756 629 100669 230209 159443 125501 79470 1127 133563 12992 4511 3835 1065 2770 8481 6241 1912 79097 85747 144462 4823 1418 48091
is_linear=0
shrinkage=0.1


Tree=3
num_leaves=31
num_cat=0
split_feature=16 38 17 38 16 35 26 38 30 38 22 34 38 39 34 29 35 38 30 39 38 24 24 38 36 38 29 30 38 39
split_gain=3.55518e+07 8.43485e+06 4.98228e+06 3.74973e+06 3.03137e+06 2.30758e+06 3.00934e+06 3.69765e+06 4.01303e+06 1.44068e+06 1.03808e+06 1.03195e+06 1.00181e+06 859664 792313 783680 877325 1.08194e+06 1.44281e+06 1.05745e+06 752432 745062 713635 600972 563698 528899 528115 500695 481666 481283
threshold=8.6500000000000004 322.50000000000006 3.6666666666666674 327.50000000000006 13.325000000000001 1.0000000180025095e-35 1.0000000180025095e-35 387.00000000000006 1.0000000180025095e-35 166.50000000000003 1.0000000180025095e-35 1.0000000180025095e-35 166.50000000000003 4.5000000000000009 1.0000000180025095e-35 1.0000000180025095e-35 1.0000000180025095e-35 355.00000000000006 1.0000000180025095e-35 4.5000000000000009 515.00000000000011 1.0000000180025095e-35 1.0000000180025095e-35 515.00000000000011 1.0000000180025095e-35 240.50000000000003 1.0000000180025095e-35 1.0000000180025095e-35 166.50000000000003 4.5000000000000009
decision_type=2 2 2 2 2 2 2 2 2 2 2 2 2 2 2 2 2 2 2 2 2 2 2 2 2 2 2 2 2 2
left_child=1 2 9 4 14 20 -7 8 -8 27 21 28 -4 -9 -2 16 23 18 -18 -19 26 -11 25 -5 -25 -14 -3 -1 -6 -29
right_child=3 5 12 15 11 6 7 13 -10 10 -12 -13 22 -15 -16 -17 17 19 -20 -21 -22 -23 -24 24 -26 -27 -28 29 -30 -31
leaf_value=1.2022621769952022 -0.14503482570458118 2.349733378744471 0.036150371261790132 0.15437411349681629 -0.98821299829273812 2.5057947393849203 3.4928462372824201 3.647286351909321 20.257443519874855 1.0615480361612073 1.8544315832772793 -1.2156869704809796 0.43078393159021389 9.8420134205567216 -0.64229800263987891 -1.8095460738386686 1.2149040299298941 0.42543427298851128 8.6965909397132926 4.8540039331581397 4.6437790069961924 7.7186286756978237 6.1708035208580254 -1.8233889065529796 2.9638188481993897 1.0550706769225513 -1.7075623780402585 0.46250983328469664 -0.60921435247761924 2.1126868656992994
leaf_weight=19906 84576 4629 59579 5948 57503 1435 214 861 431 33401 38843 81677 67546 303 51586 893 479 2242 558 709 1471 168 226 291 1568 16983 344 29545 80464 1879
leaf_count=19906 84576 4629 59579 5948 57503 1435 214 861 431 33401 38843 81677 67546 303 51586 893 479 2242 558 709 1471 168 226 291 1568 16983 344 29545 80464 1879
internal_value=3.39956e-05 0.854322 0.749555 -0.643913 -0.704152 3.75294 5.92802 8.63984 14.7093 1.21515 1.50243 -0.933969 0.35038 5.2669 -0.33343 1.04528 1.26156 2.46807 5.24523 1.49072 2.65722 1.09509 0.571266 0.645002 2.21387 0.556222 2.06879 0.809854 -0.767182 0.561246
internal_weight=646258 277764 268076 368494 355806 9688 3244 1809 645 123742 72412 219644 144334 1164 136162 12688 11795 3988 1037 2951 6444 33569 84755 7807 1859 84529 4973 51330 137967 31424
internal_count=646258 277764 268076 368494 355806 9688 3244 1809 645 123742 72412 219644 144334 1164 136162 12688 11795 3988 1037 2951 6444 33569 84755 7807 1859 84529 4973 51330 137967 31424
is_linear=0
shrinkage=0.1


Tree=4
num_leaves=31
num_cat=0
split_feature=17 40 17 40 17 29 22 42 23 17 17 41 34 34 34 41 37 35 41 42 26 26 39 34 41 40 40 40 41 41
split_gain=2.8895e+07 6.87296e+06 4.32013e+06 2.97571e+06 2.20906e+06 1.39459e+06 1.51439e+06 3.73334e+06 1.24282e+06 1.23466e+06 826615 806564 724268 696946 693859 580892 559841 738272 528290 523813 1.01768e+06 507861 503151 476188 468303 445987 430055 425886 425065 402778
threshold=8.7500000000000071 3.5000000000000004 4.2333333333333369 3.5000000000000004 14.400000000000004 1.0000000180025095e-35 1.0000000180025095e-35 1.0000000180025095e-35 1.0000000180025095e-35 3.6666666666666674 0.98333333333333439 0.97802517156340063 1.0000000180025095e-35 1.0000000180025095e-35 1.0000000180025095e-35 0.99962096909567 1.0000000180025095e-35 1.0000000180025095e-35 0.92968778773130245 1.0000000180025095e-35 1.0000000180025095e-35 1.0000000180025095e-35 2.5000000000000004 1.0000000180025095e-35 0.99962096909567 2.5000000000000004 2.5000000000000004 1.5000000000000002 0.93178971279777756 0.99962096909567
decision_type=2 2 2 2 2 2 2 2 2 2 2 2 2 2 2 2 2 2 2 2 2 2 2 2 2 2 2 2 2 2
left_child=1 2 8 4 13 6 11 9 10 -8 25 -3 19 29 -6 27 -5 22 -15 20 -4 -19 -18 -23 -21 -1 -14 -10 -16 -2
right_child=3 5 12 16 14 -7 7 -9 15 -11 -12 -13 26 18 28 -17 17 21 -20 24 -22 23 -24 -25 -26 -27 -28 -29 -30 -31
leaf_value=1.4989139172121999 -0.21813223555496231 2.2283862951314641 0.35770023781957022 -1.066708932472914 -0.73706283861818633 -1.5220026156073285 13.178190410401109 2.786636496813955 0.18833118729266923 6.6837273122492311 1.0356984918580809 5.6832311232421757 -0.19799939176606624 -0.83628834103701333 -1.2762930592144528 6.5363204153331784 -0.66708605255765274 1.0094778656707795 -0.16455658521297778 0.20521858725339759 1.4930625309802787 3.5725361144811929 0.97839864543432631 -0.31969835908397515 4.2144306983862316 2.4116763399175372 0.49193620816287909 0.82798624874328608 -0.71935700130258029 3.6640915405481302
leaf_weight=25858 94864 6798 24513 1465 120478 613 541 2380 13991 646 48056 750 39737 41602 52548 168 2888 2868 16294 51713 11645 2051 5208 371 292 6755 11692 40661 18545 267
leaf_count=25858 94864 6798 24513 1465 120478 613 541 2380 13991 646 48056 750 39737 41602 52548 168 2888 2868 16294 51713 11645 2051 5208 371 292 6755 11692 40661 18545 267
internal_value=4.26975e-05 0.748609 0.647524 -0.597248 -0.656979 3.1193 3.37539 5.07341 1.04977 9.65232 1.29945 2.57238 0.257094 -0.373688 -0.88327 0.682354 0.788687 0.991811 -0.647245 0.431065 0.723385 1.91043 0.391412 2.97644 0.22781 1.68804 -0.0411412 0.66424 -1.13103 -0.207198
internal_weight=646258 286809 275081 359449 344598 11728 11115 3567 135489 1187 80669 7548 139592 153027 191571 54820 14851 13386 57896 88163 36158 5290 8096 2422 52005 32613 51429 54652 71093 95131
internal_count=646258 286809 275081 359449 344598 11728 11115 3567 135489 1187 80669 7548 139592 153027 191571 54820 14851 13386 57896 88163 36158 5290 8096 2422 52005 32613 51429 54652 71093 95131
is_linear=0
shrinkage=0.1


Tree=5
num_leaves=31
num_cat=0
split_feature=16 38 17 16 26 41 22 38 38 38 38 34 23 38 41 41 41 26 41 38 38 23 29 41 30 34 30 36 23 38
split_gain=2.39809e+07 5.49716e+06 3.72332e+06 2.30945e+06 2.12513e+06 1.83173e+06 1.61755e+06 1.50313e+06 1.46468e+06 1.21143e+06 928955 808596 664819 621177 564887 564033 542951 515389 492751 454943 451895 436092 427793 421084 389280 377440 367540 350034 342929 328655
threshold=7.1250000000000009 278.00000000000006 11.466666666666669 1.7500000000000002 1.0000000180025095e-35 0.65756419175593372 1.0000000180025095e-35 302.50000000000006 272.00000000000006 345.00000000000006 435.00000000000006 1.0000000180025095e-35 1.0000000180025095e-35 166.50000000000003 0.99962096909567 0.91890954976323724 0.97661544098488917 1.0000000180025095e-35 0.99962096909567 166.50000000000003 166.50000000000003 1.0000000180025095e-35 1.0000000180025095e-35 0.99962096909567 1.0000000180025095e-35 1.0000000180025095e-35 1.0000000180025095e-35 1.0000000180025095e-35 1.0000000180025095e-35 159.00000000000003
decision_type=2 2 2 2 2 2 2 2 2 2 2 2 2 2 2 2 2 2 2 2 2 2 2 2 2 2 2 2 2 2
left_child=1 3 8 12 10 6 -6 11 18 -8 22 17 20 25 21 -13 -7 27 19 -2 -1 -15 26 -22 -9 28 -3 -4 -5 -14
right_child=2 4 7 13 5 16 9 24 -10 -11 -12 15 29 14 -16 -17 -18 -19 -20 -21 23 -23 -24 -25 -26 -27 -28 -29 -30 -31
leaf_value=1.0149629767977959 -0.35512916997052785 2.6687993999758923 -1.036960274483729 0.59016363992442622 1.5707775054669399 1.5229665246626671 5.4630080519552147 -0.32047487683276704 1.0566268536082151 10.543047353687387 4.0293739923588134 -1.0918781523940262 0.25695764298740648 0.80716928071802085 5.6734502252529975 -0.56847014638059867 5.262655534635015 -0.32813960372285789 3.8687417576355596 0.031774346882061336 1.6171839164871025 0.32909433582120107 -1.3802134482306663 7.325490953738873 0.89601112218679424 -0.15179286451318388 1.3016908952442654 -0.60899486424297233 -0.038542203679449646 0.96718642155595791
leaf_weight=20961 53669 2580 24406 25047 602 1938 1178 4109 11435 785 1658 70526 9260 43797 219 29082 485 54929 307 70069 24376 33813 494 129 7308 21410 8284 88140 13273 21989
leaf_count=20961 53669 2580 24406 25047 602 1938 1178 4109 11435 785 1658 70526 9260 43797 219 29082 485 54929 307 70069 24376 33813 494 129 7308 21410 8284 88140 13273 21989
internal_value=4.63684e-05 0.813278 -0.456246 0.672255 2.49152 4.24646 6.10869 -0.665416 -0.0262634 7.49884 1.81871 -0.713449 1.11187 0.427081 0.613241 -0.939069 2.27338 -0.579254 -0.126097 -0.136039 1.35593 0.598889 1.49568 1.64753 0.458206 0.184507 1.62657 -0.701809 0.372402 0.75674
internal_weight=646258 232278 413980 214274 18004 4988 2565 278500 135480 1963 13016 267083 76715 137559 77829 99608 2423 167475 124045 123738 45466 77610 11358 24505 11417 59730 10864 112546 38320 31249
internal_count=646258 232278 413980 214274 18004 4988 2565 278500 135480 1963 13016 267083 76715 137559 77829 99608 2423 167475 124045 123738 45466 77610 11358 24505 11417 59730 10864 112546 38320 31249
is_linear=0
shrinkage=0.1


Tree=6
num_leaves=31
num_cat=0
split_feature=16 38 17 17 38 38 29 38 42 30 26 42 38 34 36 38 38 34 38 41 26 39 42 38 41 38 29 30 26 41
split_gain=1.94752e+07 4.50054e+06 3.90157e+06 1.51588e+06 1.46297e+06 1.29525e+06 956780 930875 5.38143e+06 1.10807e+06 806492 933105 1.04736e+06 697028 679265 604465 561429 549499 489585 484698 471637 460750 458305 446130 419936 402448 380435 377115 375590 468193
threshold=6.3500000000000005 322.50000000000006 11.000000000000005 1.1666666666666676 239.00000000000003 240.50000000000003 1.0000000180025095e-35 355.00000000000006 1.0000000180025095e-35 1.0000000180025095e-35 1.0000000180025095e-35 1.0000000180025095e-35 278.00000000000006 1.0000000180025095e-35 1.0000000180025095e-35 217.50000000000003 327.50000000000006 1.0000000180025095e-35 219.50000000000003 0.80672869466631736 1.0000000180025095e-35 1.5000000000000002 1.0000000180025095e-35 345.00000000000006 0.99962096909567 375.00000000000006 1.0000000180025095e-35 1.0000000180025095e-35 1.0000000180025095e-35 0.99962096909567
decision_type=2 2 2 2 2 2 2 2 2 2 2 2 2 2 2 2 2 2 2 2 2 2 2 2 2 2 2 2 2 2
left_child=1 3 5 15 13 17 7 8 9 -3 14 12 -12 20 24 28 21 -2 -16 -13 -4 -6 -22 -7 -5 -9 27 -18 29 -1
right_child=2 6 4 10 16 23 -8 25 -10 -11 11 19 -14 -15 18 -17 26 -19 -20 -21 22 -23 -24 -25 -26 -27 -28 -29 -30 -31
leaf_value=0.73592803069023649 0.082418842634787826 2.2155311781626481 -0.6801037376663267 -0.16865221650308557 2.6804477980848227 0.51593908738598071 -1.2398525806050325 0.87721868478951781 2.4035985355975349 18.088011052936853 1.3534565071344788 -0.59544257712101689 5.6519108016006019 -0.90553530595353693 0.3616476736823126 1.7228598703014286 -0.078763651573955262 -0.34921985026638708 0.96654408354501153 0.69828720361045837 0.056539479218120338 -0.30099297787385981 -0.55724679293073265 1.6092271961476787 4.3679689139417075 3.3133003871901057 -1.6286642370773567 1.2320714974091433 1.3467893478352053 5.4508705476544943
leaf_weight=32663 79031 51 100845 21465 524 17352 437 809 1202 333 14531 3309 589 91147 53090 13273 3513 47052 17889 23158 20646 40893 29614 4755 205 4220 730 5847 16874 211
leaf_count=32663 79031 51 100845 21465 524 17352 437 809 1202 333 14531 3309 589 91147 53090 13273 3513 47052 17889 23158 20646 40893 29614 4755 205 4220 730 5847 16874 211
internal_value=4.96095e-05 0.807431 -0.373197 0.718679 -0.584228 0.045134 3.28953 3.58889 5.70141 15.9912 0.528729 0.89458 1.52127 -0.687129 0.364503 1.12326 -0.100251 -0.0786628 0.514113 0.536524 -0.55538 -0.263209 -0.305117 0.751157 -0.125536 2.92167 0.568608 0.740132 0.963256 0.766356
internal_weight=646258 204309 441949 197257 293759 148190 7052 6615 1586 384 134236 41587 15120 242252 92649 63021 51507 126083 70979 26467 151105 41417 50260 22107 21670 5029 10090 9360 49748 32874
internal_count=646258 204309 441949 197257 293759 148190 7052 6615 1586 384 134236 41587 15120 242252 92649 63021 51507 126083 70979 26467 151105 41417 50260 22107 21670 5029 10090 9360 49748 32874
is_linear=0
shrinkage=0.1


Tree=7
num_leaves=31
num_cat=0
split_feature=17 38 16 16 38 35 26 38 30 38 39 26 42 38 34 36 38 36 38 23 26 42 38 38 38 38 35 34 39 38
split_gain=1.585e+07 3.72735e+06 3.11748e+06 1.33882e+06 1.27637e+06 1.12559e+06 1.3047e+06 2.12872e+06 2.02291e+06 942184 603100 586304 709175 786704 538752 536860 530006 470328 437072 417372 403094 493835 381591 378038 398443 361797 347429 550886 339897 339002
threshold=6.600000000000005 322.50000000000006 12.050000000000002 1.4500000000000002 240.50000000000003 1.0000000180025095e-35 1.0000000180025095e-35 387.00000000000006 1.0000000180025095e-35 231.50000000000003 4.5000000000000009 1.0000000180025095e-35 1.0000000180025095e-35 278.00000000000006 1.0000000180025095e-35 1.0000000180025095e-35 216.00000000000003 1.0000000180025095e-35 327.50000000000006 1.0000000180025095e-35 1.0000000180025095e-35 1.0000000180025095e-35 219.50000000000003 515.00000000000011 534.00000000000011 327.50000000000006 1.0000000180025095e-35 1.0000000180025095e-35 1.5000000000000002 515.00000000000011
decision_type=2 2 2 2 2 2 2 2 2 2 2 2 2 2 2 2 2 2 2 2 2 2 2 2 2 2 2 2 2 2
left_child=1 3 4 16 14 23 -7 8 -8 17 -9 15 13 -13 20 -5 19 -4 -6 -1 -2 -22 -17 -3 -25 28 29 -28 -11 -20
right_child=2 5 9 11 18 6 7 10 -10 25 -12 12 -14 -15 -16 22 -18 -19 26 -21 21 -23 -24 24 -26 -27 27 -29 -30 -31
leaf_value=1.0594625997026115 -0.12868458691817072 1.5689247487755731 -0.91460896425824822 -0.14249611934757475 0.40322071783176794 2.0371157037071663 2.6337879748991977 2.2148512828779041 16.240129046641705 2.357304892506817 8.1972710185113993 1.1718464391518588 0.4457304310248133 4.9690433215927072 -0.374328358560646 0.29997127062735013 1.5038184872065559 -0.56722407676864195 0.34868944450059125 0.50575421371726015 0.82632536032950787 0.003569389591092187 0.84443074291091902 7.4402697393364381 2.7139641481359091 0.40820148422217956 3.6877010013450788 0.29662002193232512 -0.32533843934048517 2.5452110775865147
leaf_weight=34504 61597 3673 51286 20878 20028 1051 161 659 342 477 226 13921 25675 567 55568 51218 15305 162404 3181 22489 11692 19397 17194 224 874 8992 1290 762 39722 901
leaf_count=34504 61597 3673 51286 20878 20028 1051 161 659 342 477 226 13921 25675 567 55568 51218 15305 162404 3181 22489 11692 19397 17194 224 874 8992 1290 762 39722 901
internal_value=5.22628e-05 0.716469 -0.342286 0.636619 -0.0144925 2.95045 4.69781 6.70959 11.8989 -0.559769 3.75009 0.4441 0.761414 1.32079 -0.128133 0.301363 0.981322 -0.650601 0.62946 0.840986 0.0194714 0.313009 0.436821 2.05637 3.68406 -0.165183 1.36796 2.4292 -0.293448 0.834022
internal_weight=646258 208961 437297 201751 174416 7210 2439 1388 503 262881 885 129453 40163 14488 148254 89290 72298 213690 26162 56993 92686 31089 68412 4771 1098 49191 6134 2052 40199 4082
internal_count=646258 208961 437297 201751 174416 7210 2439 1388 503 262881 885 129453 40163 14488 148254 89290 72298 213690 26162 56993 92686 31089 68412 4771 1098 49191 6134 2052 40199 4082
is_linear=0
shrinkage=0.1


Tree=8
num_leaves=31
num_cat=0
split_feature=17 38 17 26 35 38 38 34 38 17 41 38 39 41 34 38 38 41 22 41 35 37 38 38 37 24 36 34 36 39
split_gain=1.29591e+07 3.36428e+06 2.10221e+06 1.24558e+06 1.57929e+06 1.23924e+06 1.20368e+06 1.20029e+06 927373 750841 626478 620545 731182 607153 565713 553487 510523 490404 478181 454999 431952 579604 603403 513421 423138 417170 381985 377361 368406 347987
threshold=9.4833333333333414 278.00000000000006 2.6333333333333315 1.0000000180025095e-35 1.0000000180025095e-35 239.00000000000003 296.50000000000006 1.0000000180025095e-35 387.00000000000006 15.816666666666668 0.99962096909567 435.00000000000006 2.5000000000000004 0.99962096909567 1.0000000180025095e-35 149.00000000000003 327.50000000000006 0.9078146698313948 1.0000000180025095e-35 0.96529536160541518 1.0000000180025095e-35 1.0000000180025095e-35 355.00000000000006 515.00000000000011 1.0000000180025095e-35 1.0000000180025095e-35 1.0000000180025095e-35 1.0000000180025095e-35 1.0000000180025095e-35 1.5000000000000002
decision_type=2 2 2 2 2 2 2 2 2 2 2 2 2 2 2 2 2 2 2 2 2 2 2 2 2 2 2 2 2 2
left_child=1 2 10 11 6 9 24 8 -6 27 18 12 -3 14 15 -4 29 -16 25 -20 23 -22 -23 -18 -5 -1 -25 -2 -13 -7
right_child=5 3 13 4 7 16 -8 -9 -10 -11 -12 28 -14 -15 17 -17 20 -19 19 -21 21 22 -24 26 -26 -27 -28 -29 -30 -31
leaf_value=0.45380844308282353 -0.22250868528150491 -0.14397105114953612 -0.078562467130033814 8.2059935118022729 8.1682405377572138 2.2611846960729212 0.73456690044747175 0.79896462516232858 3.6719963856017936 -0.67851420515801442 4.5609484145900714 -0.64091713172806941 1.3836645291522611 3.6284472637360587 -0.24639303743069793 0.425811366412015 -0.30682432608562071 0.31175095051490526 1.0769980497055032 0.32913673876788752 -1.456317116851608 4.0736735401901001 1.104797784187121 -1.8154987893442609 3.4430111649370043 4.488201571434967 2.2943187794550179 -0.56109983271593622 3.2061777707565433 -0.1867124562122672
leaf_weight=39340 86909 4461 28588 265 975 587 3344 570 871 139685 431 285 10524 509 45505 91052 5892 24067 43784 9993 599 939 2524 267 635 257 1454 52984 1949 47013
leaf_count=39340 86909 4461 28588 265 975 587 3344 570 871 139685 431 285 10524 509 45505 91052 5892 24067 43784 9993 599 939 2524 267 635 257 1454 52984 1949 47013
internal_value=5.66741e-05 0.470204 0.374194 1.61011 2.77137 -0.426458 1.60888 4.81191 6.04991 -0.514513 0.761437 1.16083 0.928912 0.182724 0.173435 0.305291 -0.0111323 -0.0533129 0.74385 0.938037 0.581418 1.414 1.91076 0.137059 4.853 0.480106 1.65603 -0.350752 2.71532 -0.156478
internal_weight=646258 307405 283526 23879 6660 338853 4244 2416 1846 279578 93805 17219 14985 189721 189212 119640 59275 69572 93374 53777 11675 4062 3463 7613 900 39597 1721 139893 2234 47600
internal_count=646258 307405 283526 23879 6660 338853 4244 2416 1846 279578 93805 17219 14985 189721 189212 119640 59275 69572 93374 53777 11675 4062 3463 7613 900 39597 1721 139893 2234 47600
is_linear=0
shrinkage=0.1


Tree=9
num_leaves=31
num_cat=0
split_feature=16 40 18 40 4 36 23 29 22 42 17 36 42 41 41 42 41 36 43 39 25 41 29 41 42 41 41 39 36 40
split_gain=1.07978e+07 2.46945e+06 2.19188e+06 1.03496e+06 946720 697135 660133 607921 690932 1.192e+06 545805 497924 418365 407052 392956 369056 884889 347133 343993 373098 332820 315967 313811 311831 547284 397252 301604 290978 284220 263861
threshold=6.3500000000000005 3.5000000000000004 13.30714285714286 3.5000000000000004 1.0000000180025095e-35 1.0000000180025095e-35 1.0000000180025095e-35 1.0000000180025095e-35 1.0000000180025095e-35 1.0000000180025095e-35 2.4333333333333358 1.0000000180025095e-35 1.0000000180025095e-35 0.76168384339120576 0.97661544098488917 1.0000000180025095e-35 0.8595475592472408 1.0000000180025095e-35 1.0000000180025095e-35 3.5000000000000004 1.0000000180025095e-35 0.99936182647694893 1.0000000180025095e-35 0.97968707401335398 1.0000000180025095e-35 0.88058408348664929 0.99962096909567 3.5000000000000004 1.0000000180025095e-35 3.5000000000000004
decision_type=2 2 2 2 2 2 2 2 2 2 2 2 2 2 2 2 2 2 2 2 2 2 2 2 2 2 2 2 2 2
left_child=1 4 3 5 6 20 12 8 14 10 -10 -4 17 -14 -3 -7 -17 -1 -8 -20 -2 -22 -5 24 -13 -26 28 -11 -6 -25
right_child=2 7 11 22 26 15 18 -9 9 27 -12 23 13 -15 -16 16 -18 -19 19 -21 21 -23 -24 29 25 -27 -28 -29 -30 -31
leaf_value=0.54180207963006144 -0.12204041215605993 1.5484471494571839 -0.77208339945166726 1.1414102204848451 -0.14356301334981378 0.20560030321348918 0.37849940251420028 -1.3359349416951611 9.5945523538071704 1.0802411464117263 4.5553620146653602 -0.26837334413190361 -0.0091348254651759005 0.82219652674271859 4.3109471724004482 -0.64602588863699806 0.05208370974306719 1.3679291317103184 0.89761797685517453 4.8397279513084293 -0.69611888898020868 3.5795691239422767 -1.4869550041140369 -0.17024944736875081 -0.90097680364584221 -0.45166676142379675 4.2370723124177374 3.754497477512579 0.3353694478324456 1.3973686903268199
leaf_weight=6577 19272 4755 50191 8518 16042 57984 49798 437 395 914 478 70040 6955 38455 577 23672 77922 22468 748 353 26351 173 479 26542 35448 44239 187 734 54436 1118
leaf_count=6577 19272 4755 50191 8518 16042 57984 49798 437 395 914 478 70040 6955 38455 577 23672 77922 22468 748 353 26351 173 479 26542 35448 44239 187 734 54436 1118
internal_value=5.84791e-05 0.601241 -0.277864 -0.0484044 0.529738 -0.0943955 0.694741 2.29169 2.49371 3.85783 6.84378 -0.494006 0.88448 0.694872 1.84814 0.00430434 -0.110585 1.18088 0.41718 2.16477 -0.438312 -0.668097 1.00133 -0.415321 -0.472307 -0.651547 0.237029 2.27288 0.226356 -0.106839
internal_weight=646258 204309 441949 214371 196019 205374 125354 8290 7853 2521 873 227578 74455 45410 5332 159578 101594 29045 50899 1101 45796 26524 8997 177387 149727 79687 70665 1648 70478 27660
internal_count=646258 204309 441949 214371 196019 205374 125354 8290 7853 2521 873 227578 74455 45410 5332 159578 101594 29045 50899 1101 45796 26524 8997 177387 149727 79687 70665 1648 70478 27660
is_linear=0
shrinkage=0.1


Tree=10
num_leaves=31
num_cat=0
split_feature=18 38 16 38 26 42 38 38 16 39 26 41 34 42 41 34 38 41 38 39 41 38 41 39 38 30 38 38 35 34
split_gain=8.88503e+06 2.31189e+06 1.52252e+06 1.06557e+06 951173 1.27796e+06 1.54798e+06 2.13619e+06 912144 683575 478871 523739 469613 432503 508343 466050 418215 441913 408909 467191 386782 336220 338601 334275 330472 294916 279447 273733 319845 505895
threshold=7.2309523809523819 278.00000000000006 15.750000000000002 240.50000000000003 1.0000000180025095e-35 1.0000000180025095e-35 387.00000000000006 345.00000000000006 1.1500000000000001 3.5000000000000004 1.0000000180025095e-35 0.99962096909567 1.0000000180025095e-35 1.0000000180025095e-35 0.73478593522388869 1.0000000180025095e-35 149.00000000000003 0.99962096909567 435.00000000000006 2.5000000000000004 0.92968778773130245 166.50000000000003 0.99962096909567 2.5000000000000004 219.50000000000003 1.0000000180025095e-35 549.00000000000011 345.00000000000006 1.0000000180025095e-35 1.0000000180025095e-35
decision_type=2 2 2 2 2 2 2 2 2 2 2 2 2 2 2 2 2 2 2 2 2 2 2 2 2 2 2 2 2 2
left_child=1 8 3 12 18 6 7 -6 21 -7 11 24 16 15 -15 -12 -2 -18 19 -3 -14 25 -23 -4 -10 -1 -25 -5 -29 -30
right_child=2 4 23 27 5 9 -8 -9 10 -11 13 -13 20 14 -16 -17 17 -19 -20 -21 -22 22 -24 26 -26 -27 -28 28 29 -31
leaf_value=0.88295294976613103 -0.3939958832809497 -0.06515825858745096 -0.64484756965020262 0.23290968107260032 4.1494402128012622 0.4787647340076201 1.3433395673159196 12.972670009438856 0.054303740375973159 4.4392728924371294 1.2257032331128046 3.9570070509352515 -0.53730706267814832 -0.92282951159389082 0.44723814434068015 -0.021089929463438947 0.0052293321744026258 4.6643813660003097 2.6271132226192258 1.3461689326490858 -0.044568231922609072 0.91586800554262404 5.3014423484182629 -0.37528294217955532 0.50887507298298762 0.19684195213290742 2.4365197085006769 0.44586149362564476 2.8524362653032411 -0.0032850636020528776
leaf_weight=10265 33601 3333 86333 29492 955 2115 908 385 83464 548 13154 360 56554 3001 27671 3883 97565 203 1620 7915 22178 34462 176 81928 19783 16076 354 5322 1666 988
leaf_count=10265 33601 3333 86333 29492 955 2115 908 385 83464 548 13154 360 56554 3001 27671 3883 97565 203 1620 7915 22178 34462 176 81928 19783 16076 354 5322 1666 988
internal_value=5.84531e-05 0.498753 -0.275629 -0.11778 1.59411 2.77802 4.53331 6.69226 0.407013 1.29513 0.275424 0.154704 -0.205392 0.537578 0.313163 0.941555 -0.0896499 0.0149509 1.14209 0.927997 -0.39851 0.733535 0.938304 -0.507389 0.141408 0.46424 -0.363156 0.37349 0.893203 1.78974
internal_weight=646258 230074 416184 247569 17779 4911 2248 1340 212295 2663 151316 103607 210101 47709 30672 17037 131369 97768 12868 11248 78732 60979 34638 168615 103247 26341 82282 37468 7976 2654
internal_count=646258 230074 416184 247569 17779 4911 2248 1340 212295 2663 151316 103607 210101 47709 30672 17037 131369 97768 12868 11248 78732 60979 34638 168615 103247 26341 82282 37468 7976 2654
is_linear=0
shrinkage=0.1


Tree=11
num_leaves=31
num_cat=0
split_feature=17 40 19 16 24 36 36 42 36 16 25 22 42 30 40 17 40 25 42 41 41 42 29 40 34 40 39 24 29 34
split_gain=7.33781e+06 1.68785e+06 1.615e+06 649171 581186 615282 521003 515995 512940 475229 415720 372848 738360 382168 347483 318621 266229 246340 238792 556659 225280 230202 223308 220102 237921 216811 215184 207522 205002 197463
threshold=6.1666666666666687 3.5000000000000004 46.150000000000013 -1.2499999999999998 1.0000000180025095e-35 1.0000000180025095e-35 1.0000000180025095e-35 1.0000000180025095e-35 1.0000000180025095e-35 2.0500000000000003 1.0000000180025095e-35 1.0000000180025095e-35 1.0000000180025095e-35 1.0000000180025095e-35 3.5000000000000004 17.641666666666673 3.5000000000000004 1.0000000180025095e-35 1.0000000180025095e-35 0.7803388326558145 0.98051992972798574 1.0000000180025095e-35 1.0000000180025095e-35 3.5000000000000004 1.0000000180025095e-35 2.5000000000000004 3.5000000000000004 1.0000000180025095e-35 1.0000000180025095e-35 1.0000000180025095e-35
decision_type=2 2 2 2 2 2 2 2 2 2 2 2 2 2 2 2 2 2 2 2 2 2 2 2 2 2 2 2 2 2
left_child=1 3 6 -1 5 10 23 -7 17 11 -5 -3 13 -13 18 16 -8 25 29 -20 21 -17 -6 -2 -25 27 -14 -4 -16 -10
right_child=2 9 8 4 22 7 15 -9 14 -11 -12 12 26 -15 28 20 -18 -19 19 -21 -22 -23 -24 24 -26 -27 -28 -29 -30 -31
leaf_value=1.0365457526860671 -0.64659082874262952 2.0529343759390004 -0.19060776436011534 0.41190092585648491 5.8356364199223414 0.73614044289770675 -0.21907312931739986 0.32887022942060279 0.40983988606003285 1.2175040351239832 -0.25718571183649847 4.1417074579654667 1.2971725173399977 10.576574852844896 0.96014298324390657 -0.31376502992264294 0.47299579564075489 -0.52879989344424538 -0.62399806612584108 0.088912792137490385 -0.080441585627153034 -0.64345893444713465 1.4945551558988823 2.0336336603418927 -1.6817251938259947 1.1770757587387319 4.5428629551818984 2.0823477886221258 -1.4270734361172972 -0.028708400413907827
leaf_weight=17229 61155 2453 13502 16180 261 50415 112673 81240 29977 4239 21792 163 529 218 6204 39395 5846 21314 13072 67527 15850 45807 218 605 240 1412 333 413 381 15615
leaf_count=17229 61155 2453 13502 16180 261 50415 112673 81240 29977 4239 21792 163 529 218 6204 39395 5846 21314 13072 67527 15850 45807 218 605 240 1412 333 413 381 15615
internal_value=6.01094e-05 0.512147 -0.221665 0.451633 0.392385 0.38255 -0.368452 0.484832 0.0222948 1.94058 0.0279177 2.76933 4.18033 7.84165 0.113702 -0.296167 -0.184933 -0.308931 0.0767437 -0.0267174 -0.426625 -0.491023 3.86718 -0.624439 0.977643 -0.00316262 2.55483 -0.123001 0.821826 0.259642
internal_weight=646258 195270 450988 187335 170106 169627 281571 131655 169417 7935 37972 3696 1243 381 132776 219571 118519 36641 126191 80599 101052 85202 479 62000 845 15327 862 13915 6585 45592
internal_count=646258 195270 450988 187335 170106 169627 281571 131655 169417 7935 37972 3696 1243 381 132776 219571 118519 36641 126191 80599 101052 85202 479 62000 845 15327 862 13915 6585 45592
is_linear=0
shrinkage=0.1


Tree=12
num_leaves=31
num_cat=0
split_feature=16 38 38 17 18 26 35 38 38 38 41 38 38 24 41 37 37 35 18 41 38 30 34 16 35 30 24 36 34 26
split_gain=5.99384e+06 1.57793e+06 1.01085e+06 755890 681787 636270 672883 741106 537407 1.85936e+06 482610 458389 414547 481059 370638 362507 340393 501773 314893 292861 292816 279191 297044 266983 246540 374467 232141 232009 216354 233113
threshold=7.1250000000000009 278.00000000000006 166.50000000000003 15.816666666666668 1.5000000000000011 1.0000000180025095e-35 1.0000000180025095e-35 296.50000000000006 387.00000000000006 345.00000000000006 0.96989470585107185 345.00000000000006 166.50000000000003 1.0000000180025095e-35 0.99962096909567 1.0000000180025095e-35 1.0000000180025095e-35 1.0000000180025095e-35 10.730952380952385 0.99962096909567 435.00000000000006 1.0000000180025095e-35 1.0000000180025095e-35 -2.8499999999999992 1.0000000180025095e-35 1.0000000180025095e-35 1.0000000180025095e-35 1.0000000180025095e-35 1.0000000180025095e-35 1.0000000180025095e-35
decision_type=2 2 2 2 2 2 2 2 2 2 2 2 2 2 2 2 2 2 2 2 2 2 2 2 2 2 2 2 2 2
left_child=1 4 18 11 23 20 7 15 9 -8 -10 19 21 14 -14 -7 -13 -18 -2 26 24 22 -6 -1 25 -3 -4 -22 29 -5
right_child=2 5 3 28 12 6 8 -9 10 -11 -12 16 13 -15 -16 -17 17 -19 -20 -21 27 -23 -24 -25 -26 -27 -28 -29 -30 -31
leaf_value=1.1813742575239492 -0.20076276264578979 1.6377112571288244 -0.010947699997810952 -0.33798161026246015 0.5717229711895836 7.7687855026469776 1.5695110946194251 0.57037284316200088 0.87522487495730816 10.976164698666643 5.9872970571441044 -1.1038390916509226 0.33915023293421198 4.8907142698255361 4.14985788728809 2.7659975754647257 0.44862801239467598 2.2781542335932778 -0.50731695006697164 3.1871569046647186 -0.85821236134187817 -0.13453189594417025 -0.10847030875606214 0.53682815711194143 1.3271588824112976 -0.05922503496667697 2.7830864030642797 2.6387888204475054 -0.49871895568905017 0.065002461328531089
leaf_weight=7302 46805 1748 139276 41170 15193 207 489 2468 725 368 247 849 86288 233 255 484 4841 2171 117963 287 218 40276 11118 53609 4540 5070 297 1440 38283 22038
leaf_count=7302 46805 1748 139276 41170 15193 207 489 2468 725 368 247 849 86288 233 255 484 4841 2171 117963 287 218 40276 11118 53609 4540 5070 297 1440 38283 22038
internal_value=5.93998e-05 0.406628 -0.228061 -0.101001 0.331074 1.30577 2.26602 1.38154 3.79209 5.61686 2.1791 0.0433561 0.218655 0.362674 0.350426 4.27372 0.786332 1.01532 -0.420237 0.00159085 0.937636 0.0309686 0.284307 0.614114 0.756286 0.376012 -0.00498233 2.17875 -0.311112 -0.197479
internal_weight=646258 232278 413980 249212 214274 18004 4988 3159 1829 857 972 147721 153363 86776 86543 691 7861 7012 164768 139860 13016 66587 26311 60911 11358 6818 139573 1658 101491 63208
internal_count=646258 232278 413980 249212 214274 18004 4988 3159 1829 857 972 147721 153363 86776 86543 691 7861 7012 164768 139860 13016 66587 26311 60911 11358 6818 139573 1658 101491 63208
is_linear=0
shrinkage=0.1


Tree=13
num_leaves=31
num_cat=0
split_feature=18 38 18 26 42 38 38 41 26 42 41 36 34 38 22 39 38 34 26 42 41 29 38 39 39 38 26 42 38 36
split_gain=4.95042e+06 1.37166e+06 1.12213e+06 570861 842358 972283 1.20394e+06 546180 569369 609487 588865 587462 494845 490334 443698 428013 406009 384746 315932 337227 283474 242394 273328 270279 241103 231482 243765 280652 222714 214543
threshold=6.1464285714285731 278.00000000000006 11.130952380952385 1.0000000180025095e-35 1.0000000180025095e-35 375.00000000000006 345.00000000000006 0.99962096909567 1.0000000180025095e-35 1.0000000180025095e-35 0.71682921301221791 1.0000000180025095e-35 1.0000000180025095e-35 239.00000000000003 1.0000000180025095e-35 3.5000000000000004 166.50000000000003 1.0000000180025095e-35 1.0000000180025095e-35 1.0000000180025095e-35 0.94719382162285448 1.0000000180025095e-35 381.00000000000006 2.5000000000000004 4.5000000000000009 515.00000000000011 1.0000000180025095e-35 1.0000000180025095e-35 515.00000000000011 1.0000000180025095e-35
decision_type=2 2 2 2 2 2 2 2 2 2 2 2 2 2 2 2 2 2 2 2 2 2 2 2 2 2 2 2 2 2
left_child=1 7 16 21 5 6 -5 8 11 12 -11 -1 -10 17 -13 -6 24 18 -4 -20 -19 22 23 -3 -2 26 29 -28 -15 -18
right_child=2 3 13 4 15 -7 -8 -9 9 10 -12 14 -14 28 -16 -17 25 20 19 -21 -22 -23 -24 -25 -26 -27 27 -29 -30 -31
leaf_value=-0.19343944435834642 -0.21919250109550084 -0.14827829197824291 -0.36614435474041906 3.667190648777622 0.37670687459726548 1.141934995206302 10.919285815478835 3.1889115190944382 1.3106739295010001 -0.87988832303891051 0.48504099500286552 0.088056071647189316 0.10530282588132987 -0.056115060191735004 0.52558110427240956 3.7755827009035601 -0.35018937632624858 -0.62423189713356242 0.25845726857873563 -0.27508734369001808 -0.19877490862826552 -1.4264884252882586 1.9941308833820566 1.1372245819743039 0.53029137201650423 1.7075451451371411 0.76359601487617323 0.14322705664583882 1.137559830208335 0.11366104309765933
leaf_weight=27571 61549 2277 98212 775 1840 747 325 672 15402 3487 33700 41648 4373 48600 52266 463 12163 68231 20162 28719 20327 409 2381 5803 4613 947 11388 20275 1614 55319
leaf_count=27571 61549 2277 98212 775 1840 747 325 672 15402 3487 33700 41648 4373 48600 52266 463 12163 68231 20162 28719 20327 409 2381 5803 4613 947 11388 20275 1614 55319
internal_value=6.1618e-05 0.422425 -0.181301 1.34031 2.33799 3.92835 5.81783 0.345449 0.334723 0.595583 0.357032 0.212407 1.04414 -0.301445 0.331555 1.06137 0.0252799 -0.361901 -0.262753 -0.0550148 -0.526579 0.959234 1.05264 0.774987 -0.166929 0.152333 0.137461 0.366368 -0.0177256 0.0300524
internal_weight=646258 194139 452119 15020 4150 1847 1100 179119 178447 56962 37187 121485 19775 285865 93914 2303 166254 235651 147093 48881 88558 10870 10461 8080 66162 100092 99145 31663 50214 67482
internal_count=646258 194139 452119 15020 4150 1847 1100 179119 178447 56962 37187 121485 19775 285865 93914 2303 166254 235651 147093 48881 88558 10870 10461 8080 66162 100092 99145 31663 50214 67482
is_linear=0
shrinkage=0.1


Tree=14
num_leaves=31
num_cat=0
split_feature=16 38 5 26 38 41 35 41 38 42 34 30 41 36 34 17 38 38 26 41 35 38 35 26 36 34 42 41 34 35
split_gain=4.12544e+06 1.0974e+06 912293 562576 608630 474231 475725 474166 467757 452174 590622 420132 397944 396956 393434 391297 401533 384467 335368 430050 287876 364473 278441 272630 257207 228191 211187 358484 234526 203651
threshold=5.8500000000000005 240.50000000000003 1.0000000180025095e-35 1.0000000180025095e-35 131.50000000000003 0.99962096909567 1.0000000180025095e-35 0.96154905744493957 240.50000000000003 1.0000000180025095e-35 1.0000000180025095e-35 1.0000000180025095e-35 0.73478593522388869 1.0000000180025095e-35 1.0000000180025095e-35 0.98333333333333439 322.50000000000006 515.00000000000011 1.0000000180025095e-35 0.99962096909567 1.0000000180025095e-35 335.00000000000006 1.0000000180025095e-35 1.0000000180025095e-35 1.0000000180025095e-35 1.0000000180025095e-35 1.0000000180025095e-35 0.84648828719429547 1.0000000180025095e-35 1.0000000180025095e-35
decision_type=2 2 2 2 2 2 2 2 2 2 2 2 2 2 2 2 2 2 2 2 2 2 2 2 2 2 2 2 2 2
left_child=1 3 13 5 7 6 14 29 18 10 -6 -8 -11 -2 -1 16 -3 20 19 24 25 -22 -18 -24 -4 -15 28 -28 -20 -5
right_child=2 15 8 4 9 -7 11 -9 -10 12 -12 -13 -14 17 -16 -17 22 -19 26 -21 21 -23 23 -25 -26 -27 27 -29 -30 -31
leaf_value=0.18491914219343636 -0.52689402799204899 1.1522731979953522 -0.44450173876706123 0.4181204891265165 1.4562132541185857 3.356343842352624 1.153813227646916 -1.6329183971397854 0.35760756264759863 -0.76705424762667951 0.078223419810473302 0.24392085752712533 0.5692735686017899 -0.21778604506388288 -0.27019529440867035 0.72027137718564127 1.9523824842993225 1.548121893478827 0.62533547875894124 3.9356542225912508 -0.091869960976320234 1.1087161040837361 2.2015021573191436 6.3562381395849137 -0.092617691291348739 -0.48278473704900177 -0.71196677337263337 0.13289815458710943 -0.16265484739806446 -1.1765560047067625
leaf_weight=59815 55692 6463 27178 5280 12444 461 7717 1887 30136 2431 4147 14819 26636 97563 27832 20062 1316 1215 13544 254 46803 2672 288 353 88124 48724 6023 30199 5237 943
leaf_count=59815 55692 6463 27178 5280 12444 461 7717 1887 30136 2431 4147 14819 26636 97563 27832 20062 1316 1215 13544 254 46803 2672 288 353 88124 48724 6023 30199 5237 943
internal_value=5.98869e-05 0.387402 -0.164744 0.288123 0.553475 0.159171 0.145764 -0.244794 -0.00557767 0.695269 1.1118 0.555533 0.457488 -0.29117 0.0403977 0.960458 1.53259 -0.22452 -0.0697504 -0.166493 -0.23553 -0.0270087 2.78735 4.49586 -0.175564 -0.306052 0.133496 -0.0076019 0.405611 0.176322
internal_weight=646258 192894 453364 164412 53768 110644 110183 8110 200695 45658 16591 22536 29067 252669 87647 28482 8420 196977 170559 115556 195762 49475 1957 641 115302 146287 55003 36222 18781 6223
internal_count=646258 192894 453364 164412 53768 110644 110183 8110 200695 45658 16591 22536 29067 252669 87647 28482 8420 196977 170559 115556 195762 49475 1957 641 115302 146287 55003 36222 18781 6223
is_linear=0
shrinkage=0.1


Tree=15
num_leaves=31
num_cat=0
split_feature=4 16 40 23 36 39 22 42 42 41 41 24 41 40 42 41 42 40 41 43 39 24 30 16 39 34 34 39 22 29
split_gain=3.81753e+06 862845 771727 488472 452507 423635 363332 634846 343382 623288 334188 333407 306226 361885 289717 282550 271070 291738 286563 268857 306115 262768 260661 258283 251176 319588 285221 246933 234699 213924
threshold=1.0000000180025095e-35 11.65 3.5000000000000004 1.0000000180025095e-35 1.0000000180025095e-35 2.5000000000000004 1.0000000180025095e-35 1.0000000180025095e-35 1.0000000180025095e-35 0.7803388326558145 0.99910941564652533 1.0000000180025095e-35 0.94005818904209282 3.5000000000000004 1.0000000180025095e-35 0.97802517156340063 1.0000000180025095e-35 3.5000000000000004 0.87932007242892063 1.0000000180025095e-35 3.5000000000000004 1.0000000180025095e-35 1.0000000180025095e-35 -0.95833333333333315 1.5000000000000002 1.0000000180025095e-35 1.0000000180025095e-35 2.5000000000000004 1.0000000180025095e-35 1.0000000180025095e-35
decision_type=2 2 2 2 2 2 2 2 2 2 2 2 2 2 2 2 2 2 2 2 2 2 2 2 2 2 2 2 2 2
left_child=2 4 3 11 21 16 15 22 24 -10 -11 23 14 -14 -7 -4 17 -3 -18 -5 -21 -2 -8 -1 25 -6 -26 -9 -19 -25
right_child=1 5 6 19 8 12 7 27 9 10 -12 -13 13 -15 -16 -17 18 28 -20 20 -22 -23 -24 29 26 -27 -28 -29 -30 -31
leaf_value=0.94030784597446526 -0.29191171639468638 -0.25866379193471484 0.69007491660090914 0.13077374031027683 0.91382437785694715 -0.081917185105118209 2.7600468335633583 0.0094620723930383885 -0.59395654558556832 0.065886901552679566 2.1205987172730465 3.3282348965721611 0.016569477234554306 1.2666147605421101 -0.44450744553154858 3.3186228144552872 -0.75576224302037431 -0.161363328456852 -0.36208486453504629 0.53321459904526669 3.7973701187097548 1.9604377869829421 6.7793656617403038 0.47048024075220152 0.40230752466794106 4.8546822165612316 -0.061017152590967808 2.5341538113436513 1.8482831115338376 -0.51570825547781241
leaf_weight=11989 45080 55669 4133 62561 1319 51992 281 701 16045 85132 798 420 41436 2452 38247 453 27889 1117 54874 906 420 523 385 77548 39212 243 20095 865 1210 2263
leaf_count=11989 45080 55669 4133 62561 1319 51992 281 701 16045 85132 798 420 41436 2452 38247 453 27889 1117 54874 906 420 523 385 77548 39212 243 20095 865 1210 2263
internal_value=5.71437e-05 -0.141053 0.418673 0.373184 0.0123808 -0.257403 1.46001 2.50622 0.0903507 -0.0218396 0.0849927 0.520415 -0.130227 0.0864361 -0.235601 0.950387 -0.378585 -0.212803 -0.494752 0.160653 1.56919 -0.266038 5.09021 0.507533 0.278303 1.52962 0.245321 1.40473 0.883963 0.442511
internal_weight=646258 483333 162925 156107 208447 274886 6818 2232 162844 101975 85930 92220 134127 43888 90239 4586 140759 57996 82763 63887 1326 45603 666 91800 60869 1562 59307 1566 2327 79811
internal_count=646258 483333 162925 156107 208447 274886 6818 2232 162844 101975 85930 92220 134127 43888 90239 4586 140759 57996 82763 63887 1326 45603 666 91800 60869 1562 59307 1566 2327 79811
is_linear=0
shrinkage=0.1


Tree=16
num_leaves=31
num_cat=0
split_feature=16 18 40 23 41 34 39 42 40 41 24 35 41 22 41 40 34 29 26 22 42 43 39 34 41 41 41 27 39 35
split_gain=2.86219e+06 720705 698532 463498 425559 620268 410142 413092 595499 400703 348575 343983 329435 316255 308166 540937 293697 291131 257732 255619 280374 249700 294755 242084 231055 225934 219191 216162 209149 205314
threshold=5.2250000000000005 15.264285714285718 3.5000000000000004 1.0000000180025095e-35 0.96529536160541518 1.0000000180025095e-35 2.5000000000000004 1.0000000180025095e-35 3.5000000000000004 0.74982948418759154 1.0000000180025095e-35 1.0000000180025095e-35 0.9983326118239767 1.0000000180025095e-35 0.93459157230280809 3.5000000000000004 1.0000000180025095e-35 1.0000000180025095e-35 1.0000000180025095e-35 1.0000000180025095e-35 1.0000000180025095e-35 1.0000000180025095e-35 3.5000000000000004 1.0000000180025095e-35 0.99962096909567 1.0000000180025095e-35 0.99936182647694893 1.0000000180025095e-35 2.5000000000000004 1.0000000180025095e-35
decision_type=2 2 2 2 2 2 2 2 2 2 2 2 2 2 2 2 2 2 2 2 2 2 2 2 2 2 2 2 2 2
left_child=2 6 3 4 5 10 7 8 16 25 -1 -7 23 -10 -8 26 -2 19 -17 -4 -21 24 -23 -6 -5 -9 -16 -14 -26 -3
right_child=1 29 17 21 12 11 14 9 13 -11 -12 -13 27 -15 15 18 -18 -19 -20 20 -22 22 -24 -25 28 -27 -28 -29 -30 -31
leaf_value=0.72008972042709862 0.19045718351073856 -0.34752310533202169 1.046356412752411 0.065144635400695469 -0.40788527506107164 -0.076793855758661975 -0.016942989693380327 -0.51582518347683382 0.45217819859314229 -0.17970763477470558 4.4482732712512929 0.71984701231541037 1.7398760489722394 2.918122036751436 0.18549971692112679 1.1574336609500298 -0.27427345891226662 -1.4136514883215836 3.5459673116778165 3.9329868499483065 1.5352962040943181 0.44068675729745399 3.5131985649663449 0.43787741059582558 0.28613027833928967 -1.3767579821462528 2.1092359674150747 -0.48251682627559911 6.873809423823106 -0.091684709993178293
leaf_weight=53756 33112 134759 4538 65714 11145 19168 96289 13217 1011 76024 251 7556 1635 1071 46138 2159 23074 368 571 748 1405 1001 453 4859 98 3962 599 597 94 40886
leaf_count=53756 33112 134759 4538 65714 11145 19168 96289 13217 1011 76024 251 7556 1635 1071 46138 2159 23074 368 571 748 1405 1001 453 4859 98 3962 599 597 94 40886
internal_value=5.68783e-05 -0.127376 0.347601 0.306246 0.443965 0.542519 -0.0324725 -0.147704 0.0611574 -0.278277 0.737499 0.148469 0.00765954 1.72147 0.0872769 0.29014 -0.000396023 1.32184 1.65813 1.47248 2.36975 0.103901 1.3997 -0.151091 0.0752927 -0.714451 0.2102 1.1455 3.53025 -0.287971
internal_weight=646258 472872 173386 166327 98967 80731 297227 151471 58268 93203 54007 26724 18236 2082 145756 49467 56186 7059 2730 6691 2153 67360 1454 16004 65906 17179 46737 2232 192 175645
internal_count=646258 472872 173386 166327 98967 80731 297227 151471 58268 93203 54007 26724 18236 2082 145756 49467 56186 7059 2730 6691 2153 67360 1454 16004 65906 17179 46737 2232 192 175645
is_linear=0
shrinkage=0.1


Tree=17
num_leaves=31
num_cat=0
split_feature=4 36 40 27 16 26 35 30 42 25 40 22 29 34 17 40 34 35 40 35 22 42 27 22 39 40 34 39 32 39
split_gain=2.70332e+06 637814 587080 497724 487942 306646 436411 333874 310683 283704 327751 278547 270847 251940 248082 267506 237778 313264 231064 200040 179886 221072 170614 160144 148118 321489 214393 146810 141388 138522
threshold=1.0000000180025095e-35 1.0000000180025095e-35 2.5000000000000004 1.0000000180025095e-35 11.65 1.0000000180025095e-35 1.0000000180025095e-35 1.0000000180025095e-35 1.0000000180025095e-35 1.0000000180025095e-35 2.5000000000000004 1.0000000180025095e-35 1.0000000180025095e-35 1.0000000180025095e-35 0.98333333333333439 3.5000000000000004 1.0000000180025095e-35 1.0000000180025095e-35 2.5000000000000004 1.0000000180025095e-35 1.0000000180025095e-35 1.0000000180025095e-35 1.0000000180025095e-35 1.0000000180025095e-35 2.5000000000000004 3.5000000000000004 1.0000000180025095e-35 4.5000000000000009 1.0000000180025095e-35 2.5000000000000004
decision_type=2 2 2 2 2 2 2 2 2 2 2 2 2 2 2 2 2 2 2 2 2 2 2 2 2 2 2 2 2 2
left_child=2 9 5 4 12 6 13 11 16 10 29 -8 18 27 15 -4 17 -7 -3 -6 -17 -22 23 28 26 -26 -11 -1 -16 -2
right_child=1 3 14 -5 19 8 7 -9 -10 24 -12 -13 -14 -15 22 20 -18 -19 -20 -21 21 -23 -24 -25 25 -27 -28 -29 -30 -31
leaf_value=0.09752003028598949 -0.3538215635820654 0.0386103329203481 0.83110403652697384 -0.56471516198187288 -0.18986643191168978 1.3761018362902289 0.5602095921842335 0.25882303880558472 0.2688293031276206 -0.37725960946209219 0.69836150727696722 1.9764576319412797 -1.1558553094802368 -0.27185719567924965 0.21721673566784047 1.3987128305281304 0.07244295272101961 0.010973771206601375 0.31092894550407335 0.040359997149701253 5.9807275525854724 2.1587733177693376 -0.62536492779885944 0.80485936310016903 -0.33313915668620164 1.9520987441228581 -0.84632445143866342 0.81788497078545763 1.2027327430832284 0.045343355185435308
leaf_weight=39572 28267 109712 11610 18419 153842 8073 3002 10496 26583 21323 4182 2585 1692 21345 13028 1408 2950 2123 43517 50008 220 487 1277 13482 21235 633 17948 3046 1638 12555
leaf_count=39572 28267 109712 11610 18419 153842 8073 3002 10496 26583 21323 4182 2585 1692 21345 13028 1408 2950 2123 43517 50008 220 487 1277 13482 21235 633 17948 3046 1638 12555
internal_value=5.60082e-05 -0.118689 0.352325 -0.0577509 -0.0317223 0.238385 0.125657 0.591289 0.465499 -0.335238 -0.144678 1.21572 0.102053 0.00857032 0.668584 1.01967 0.863142 1.09189 0.11595 -0.133388 2.05388 3.35483 0.504795 0.556088 -0.475503 -0.266903 -0.591652 0.149024 0.32736 -0.231058
internal_weight=646258 483333 162925 377190 358771 119775 80046 16083 39729 106143 45004 5587 154921 63963 43150 13725 13146 10196 153229 203850 2115 707 29425 28148 61139 21868 39271 42618 14666 40822
internal_count=646258 483333 162925 377190 358771 119775 80046 16083 39729 106143 45004 5587 154921 63963 43150 13725 13146 10196 153229 203850 2115 707 29425 28148 61139 21868 39271 42618 14666 40822
is_linear=0
shrinkage=0.1


Tree=18
num_leaves=31
num_cat=0
split_feature=4 38 38 38 27 23 18 26 38 30 38 41 41 41 29 41 26 42 31 41 38 41 38 20 38 41 25 42 41 41
split_gain=2.1898e+06 673085 669786 435115 369391 369224 361528 351214 414577 356418 343152 331339 278102 277928 277380 262095 261287 248531 418271 253849 214491 203656 190742 184552 177039 304155 259624 176170 468868 140834
threshold=1.0000000180025095e-35 166.50000000000003 240.50000000000003 515.00000000000011 1.0000000180025095e-35 1.0000000180025095e-35 17.215476190476192 1.0000000180025095e-35 131.50000000000003 1.0000000180025095e-35 750.00000000000011 0.97802517156340063 0.96583070220846101 0.99962096909567 1.0000000180025095e-35 0.9983326118239767 1.0000000180025095e-35 1.0000000180025095e-35 1.0000000180025095e-35 0.73478593522388869 345.00000000000006 0.99702531966642771 267.50000000000006 1.0000000180025095e-35 381.00000000000006 0.97707254454015102 1.0000000180025095e-35 1.0000000180025095e-35 0.84648828719429547 0.81165657135658509
decision_type=2 2 2 2 2 2 2 2 2 2 2 2 2 2 2 2 2 2 2 2 2 2 2 2 2 2 2 2 2 2
left_child=2 15 7 6 5 14 13 9 12 -1 -5 22 29 16 20 23 -3 18 -10 -19 -4 -11 -6 -2 26 -26 -7 -25 -29 -9
right_child=1 3 4 10 11 24 -8 8 17 21 -12 -13 -14 -15 -16 -17 -18 19 -20 -21 -22 -23 -24 27 25 -27 -28 28 -30 -31
leaf_value=0.38016308458653203 -0.961533870738842 -0.034580556158861513 1.2209307475649958 1.7094675970514519 7.0013032453545065 -0.68271967621465768 -0.20251523546524802 -0.40314998121992995 0.76949732389490111 -0.057120073830944099 -1.5597275449187764 -2.2190380582738092 -1.4705831739364417 2.7142001752975662 -1.3800842201971746 0.93895368398462731 0.2065068582955194 -0.63486659321452421 2.8357709033565417 0.49796386213585697 2.4650280820312815 1.0626847262308672 0.47272220617309613 -0.12735655553812311 0.99885985368045738 5.3439981691496712 0.59168769986395187 -0.65787806041882169 -0.20305443233911161 0.64387387037876875
leaf_weight=33994 3710 141218 8188 2313 58 1951 80460 2785 12530 57860 372 709 1490 389 363 1830 65946 2165 1062 22816 1669 1670 186 72498 2042 174 8830 31112 83485 2383
leaf_count=33994 3710 141218 8188 2313 58 1951 80460 2785 12530 57860 372 709 1490 389 363 1830 65946 2165 1062 22816 1669 1670 186 72498 2042 174 8830 31112 83485 2383
internal_value=5.29452e-05 -0.106821 0.317103 -0.0107569 0.802896 0.882111 -0.0225717 0.232476 0.461246 0.121832 1.25612 -1.12583 -0.267431 0.0471859 1.33181 -0.251786 0.0421648 0.587025 0.931141 0.399765 1.43181 -0.0256888 2.04684 -0.263211 0.528419 1.3423 0.361021 -0.249359 -0.326539 0.079671
internal_weight=646258 483333 162925 290698 24170 23217 288013 138755 45231 93524 2685 953 6658 207553 10220 192635 207164 38573 13592 24981 9857 59530 244 190805 12997 2216 10781 187095 114597 5168
internal_count=646258 483333 162925 290698 24170 23217 288013 138755 45231 93524 2685 953 6658 207553 10220 192635 207164 38573 13592 24981 9857 59530 244 190805 12997 2216 10781 187095 114597 5168
is_linear=0
shrinkage=0.1


Tree=19
num_leaves=31
num_cat=0
split_feature=7 38 38 39 16 24 27 41 24 36 29 31 38 20 29 38 22 41 38 38 38 23 39 38 29 38 17 27 41 41
split_gain=1.84137e+06 578240 575930 355357 345004 273307 263992 356546 239528 240624 260475 239837 225620 212807 200385 237106 352672 200366 181375 164961 229110 270569 152521 188458 134421 120060 117980 147860 282824 117309
threshold=7.6500000000000012 166.50000000000003 216.00000000000003 2.5000000000000004 16.450000000000003 1.0000000180025095e-35 1.0000000180025095e-35 0.99858279282217999 1.0000000180025095e-35 1.0000000180025095e-35 1.0000000180025095e-35 1.0000000180025095e-35 322.50000000000006 1.0000000180025095e-35 1.0000000180025095e-35 355.00000000000006 1.0000000180025095e-35 0.99227193730626528 393.50000000000006 150.50000000000003 144.00000000000003 1.0000000180025095e-35 4.5000000000000009 209.00000000000003 1.0000000180025095e-35 108.00000000000001 -1.7333333333333325 1.0000000180025095e-35 0.98411885933176479 0.99042263097330152
decision_type=2 2 2 2 2 2 2 2 2 2 2 2 2 2 2 2 2 2 2 2 2 2 2 2 2 2 2 2 2 2
left_child=2 3 8 19 5 6 7 -3 9 22 11 -11 26 -5 15 16 -14 -8 -17 20 25 -22 -1 -24 -15 -2 -4 -28 -29 -6
right_child=1 4 12 13 29 -7 17 -9 -10 10 -12 -13 14 24 -16 18 -18 -19 -20 -21 21 -23 23 -25 -26 -27 27 28 -30 -31
leaf_value=-0.12809041691350706 -0.64480484211770006 0.075415579608130417 1.2122398097643949 -1.2220139539185377 -0.19921803864873824 2.5929348838280575 -0.24124459773660367 1.4836314264516262 2.7105162029564185 0.21674799848611645 -2.3957769416934918 0.66824421948392088 1.2356295035398006 -0.01566097972875042 -1.2598326717132167 -0.19516796333635303 4.8947522680057087 -1.4551981253217416 1.5028128206257971 -0.51106722374102453 0.20489473411770939 -0.52673916368235441 1.3828917913606065 -2.2594749201898989 -1.0735475918249473 -0.2890885114752465 0.57436585996648215 0.77950610237968887 -2.1482316812943845 0.1957381090464333
leaf_weight=23601 11632 203207 2703 1531 83071 427 8356 1813 381 63553 359 14438 624 77640 280 837 456 1623 2529 34372 18221 6994 1211 160 1219 51494 23920 751 587 8268
leaf_count=23601 11632 203207 2703 1531 83071 427 8356 1813 381 63553 359 14438 624 77640 280 837 456 1623 2529 34372 18221 6994 1211 160 1219 51494 23920 751 587 8268
internal_value=5.0631e-05 -0.0872525 0.326415 -0.218131 -0.000600043 0.0684539 0.0634281 0.0878757 0.211043 0.2018 0.287954 0.300338 0.692427 -0.054705 1.33144 1.49488 2.78369 -0.43881 1.08066 -0.325191 -0.252865 0.00194525 -0.06851 0.956479 -0.0320272 -0.354644 0.584376 0.51714 -0.50558 -0.163465
internal_weight=646258 509868 136390 203103 306765 215426 214999 205020 103703 103322 78350 77991 32687 80390 4726 4446 1080 9979 3366 122713 88341 25215 24972 1371 78859 63126 27961 25258 1338 91339
internal_count=646258 509868 136390 203103 306765 215426 214999 205020 103703 103322 78350 77991 32687 80390 4726 4446 1080 9979 3366 122713 88341 25215 24972 1371 78859 63126 27961 25258 1338 91339
is_linear=0
shrinkage=0.1


Tree=20
num_leaves=31
num_cat=0
split_feature=4 34 26 42 16 30 35 36 26 42 36 30 25 35 34 3 39 29 36 39 30 39 43 24 25 39 39 44 32 35
split_gain=1.54077e+06 501833 410566 750711 303748 300854 309489 293577 290786 397572 336277 409091 266787 371218 265103 259742 243949 217216 208555 184865 374711 174761 174682 162665 157344 139521 131649 119369 106127 102100
threshold=1.0000000180025095e-35 1.0000000180025095e-35 1.0000000180025095e-35 1.0000000180025095e-35 -2.8499999999999992 1.0000000180025095e-35 1.0000000180025095e-35 1.0000000180025095e-35 1.0000000180025095e-35 1.0000000180025095e-35 1.0000000180025095e-35 1.0000000180025095e-35 1.0000000180025095e-35 1.0000000180025095e-35 1.0000000180025095e-35 268.50000000000006 4.5000000000000009 1.0000000180025095e-35 1.0000000180025095e-35 1.5000000000000002 1.0000000180025095e-35 2.5000000000000004 1.0000000180025095e-35 1.0000000180025095e-35 1.0000000180025095e-35 2.5000000000000004 4.5000000000000009 1.0000000180025095e-35 1.0000000180025095e-35 1.0000000180025095e-35
decision_type=2 2 2 2 2 2 2 2 2 2 2 2 2 2 2 2 2 2 2 2 2 2 2 2 2 2 2 2 2 2
left_child=4 2 12 19 -1 6 -5 25 10 14 26 17 -2 18 23 27 28 -12 -14 20 -4 -7 -21 -10 -13 -3 29 -9 -11 -6
right_child=1 7 3 5 8 21 -8 15 9 16 11 24 13 -15 -16 -17 -18 -19 -20 22 -22 -23 -24 -25 -26 -27 -28 -29 -30 -31
leaf_value=0.87165794245413564 -0.39690736864563453 -0.58273646003451174 3.439717802524795 -0.30436116940106034 -0.36612672123912687 -0.14971947945088548 -1.7038581215112416 -0.23194162483441666 0.98687974726594452 0.2023575449504641 0.59882342231560648 -0.43233937512677961 -0.35366498600261148 0.27240698360735405 0.062101302071270119 0.099185528158778846 1.1928149476353003 -2.0902654799779778 -0.055468274983008797 0.40941655165989588 -1.2592953077419018 0.23717207029423043 1.557910700940738 3.6533177798142251 0.1409824321760135 -0.18477101773803156 0.5890753543663827 1.7656094621072214 -0.53146415513547907 0.18085710819177656
leaf_weight=7879 25315 27972 548 10476 17559 23844 1860 107807 13130 27168 25598 5277 29316 29734 3558 31683 2424 303 117278 39851 245 22875 1369 232 51445 12861 1993 299 2124 4235
leaf_count=7879 25315 27972 548 10476 17559 23844 1860 107807 13130 27168 25598 5277 29316 29734 3558 31683 2424 303 117278 39851 245 22875 1369 232 51445 12861 1993 299 2124 4235
internal_value=4.63668e-05 -0.089601 -0.0108912 0.153606 0.265993 -0.0762697 -0.515496 -0.221513 0.235209 0.437774 0.142621 0.238005 -0.0933415 -0.0497572 0.829204 -0.152607 0.228933 0.567286 -0.115104 0.476723 1.98818 0.0397151 0.447597 1.03345 0.0876381 -0.457399 -0.188686 -0.226401 0.149131 -0.259834
internal_weight=646258 483333 302711 101068 162925 59055 12336 180622 155046 48636 106410 82623 201643 176328 16920 139789 31716 25901 146594 42013 793 46719 41220 13362 56722 40833 23787 108106 29292 21794
internal_count=646258 483333 302711 101068 162925 59055 12336 180622 155046 48636 106410 82623 201643 176328 16920 139789 31716 25901 146594 42013 793 46719 41220 13362 56722 40833 23787 108106 29292 21794
is_linear=0
shrinkage=0.1


Tree=21
num_leaves=31
num_cat=0
split_feature=7 41 36 40 42 41 39 21 41 39 34 24 35 34 7 40 25 40 40 41 39 25 27 41 32 39 22 41 35 34
split_gain=1.31997e+06 370828 372198 369410 333785 813151 382304 283298 267700 248461 347475 243036 247657 238892 232335 174415 156126 213980 151131 119957 193628 116818 109148 178386 108298 135939 104604 104466 100023 101723
threshold=10.250000000000002 0.99910941564652533 1.0000000180025095e-35 2.5000000000000004 1.0000000180025095e-35 0.85332247823010909 1.5000000000000002 1.0000000180025095e-35 0.99858279282217999 1.5000000000000002 1.0000000180025095e-35 1.0000000180025095e-35 1.0000000180025095e-35 1.0000000180025095e-35 3.7500000000000004 3.5000000000000004 1.0000000180025095e-35 2.5000000000000004 1.5000000000000002 0.9078146698313948 2.5000000000000004 1.0000000180025095e-35 1.0000000180025095e-35 0.99042263097330152 1.0000000180025095e-35 4.5000000000000009 1.0000000180025095e-35 0.93865051218509865 1.0000000180025095e-35 1.0000000180025095e-35
decision_type=2 2 2 2 2 2 2 2 2 2 2 2 2 2 2 2 2 2 2 2 2 2 2 2 2 2 2 2 2 2
left_child=3 2 16 7 9 -6 -7 8 11 10 -4 12 -1 -11 15 24 17 -2 -10 -18 -21 -3 -16 27 26 -26 -5 -24 -17 -30
right_child=1 21 4 14 5 6 -8 -9 18 13 -12 -13 -14 -15 22 28 19 -19 -20 20 -22 -23 23 -25 25 -27 -28 -29 29 -31
leaf_value=0.053316612998896298 -0.20151212015394743 0.34437824557446106 0.45818632585794294 0.20445159137119948 -0.45921877293884483 -0.8159724393803538 0.015473790057718298 -1.245156940110455 0.39115646411137961 0.14479973514222211 3.1496792615936204 2.2162068804173924 0.37726953620066161 -0.14329804383935132 0.33410447161216783 0.99686889224694419 -0.48187056564000735 0.58499809298621652 2.0729280968680164 -0.38563981814935927 0.35181517047249405 1.8488682574531596 -0.43522610576775728 -1.8328521652215941 1.2064641861838601 7.3358522776010879 0.785409768506385 1.5611953769201115 3.0332485299638687 0.97885407308035155
leaf_weight=115357 36802 886 2871 6090 55974 5740 150606 1482 1042 85475 575 554 29667 43393 35306 1608 38917 3817 1097 11772 5103 1237 742 622 1742 36 6312 404 641 388
leaf_count=115357 36802 886 2871 6090 55974 5740 150606 1482 1042 85475 575 554 29667 43393 35306 1608 38917 3817 1097 11772 5103 1237 742 622 1742 36 6312 404 641 388
internal_value=4.29088e-05 -0.0967043 -0.103052 0.211157 -0.0544636 -0.132153 -0.0150565 0.130099 0.143905 0.0702018 0.908073 0.127582 0.119589 0.0477898 0.435561 0.743845 -0.276736 -0.127591 1.25423 -0.385316 -0.162626 1.22145 0.295705 -0.470863 0.604887 1.33462 0.50017 0.269321 1.49055 2.26031
internal_weight=646258 443168 441045 203090 344634 212320 156346 149199 147717 132314 3446 145578 145024 128868 53891 16817 96411 40619 2139 55792 16875 2123 37074 1768 14180 1778 12402 1146 2637 1029
internal_count=646258 443168 441045 203090 344634 212320 156346 149199 147717 132314 3446 145578 145024 128868 53891 16817 96411 40619 2139 55792 16875 2123 37074 1768 14180 1778 12402 1146 2637 1029
is_linear=0
shrinkage=0.1


Tree=22
num_leaves=31
num_cat=0
split_feature=16 18 40 23 34 40 35 32 39 23 39 42 35 40 43 39 42 26 36 31 40 3 34 35 26 34 30 32 42 39
split_gain=1.12671e+06 367637 342336 277746 269459 259263 557902 375466 271800 203645 212033 197896 194147 178458 175065 170357 168642 237050 327792 214444 364188 163877 149443 148979 173211 184648 209635 140743 188691 160347
threshold=4.0500000000000007 17.215476190476192 3.5000000000000004 1.0000000180025095e-35 1.0000000180025095e-35 3.5000000000000004 1.0000000180025095e-35 1.0000000180025095e-35 2.5000000000000004 1.0000000180025095e-35 2.5000000000000004 1.0000000180025095e-35 1.0000000180025095e-35 2.5000000000000004 1.0000000180025095e-35 3.5000000000000004 1.0000000180025095e-35 1.0000000180025095e-35 1.0000000180025095e-35 1.0000000180025095e-35 1.0000000180025095e-35 295.50000000000006 1.0000000180025095e-35 1.0000000180025095e-35 1.0000000180025095e-35 1.0000000180025095e-35 1.0000000180025095e-35 1.0000000180025095e-35 1.0000000180025095e-35 3.5000000000000004
decision_type=2 2 2 2 2 2 2 2 2 2 2 2 2 2 2 2 2 2 2 2 2 2 2 2 2 2 2 2 2 2
left_child=2 4 3 16 5 9 8 -8 -7 11 -11 -2 13 -6 -5 -16 17 18 -1 -18 -21 -14 -19 27 -25 26 -26 -4 -29 -30
right_child=1 -3 23 14 12 6 7 -9 -10 10 -12 -13 21 -15 15 -17 19 22 -20 20 -22 -23 -24 24 25 -27 -28 28 29 -31
leaf_value=-0.38397055503232191 0.24175584552899762 -0.21027327531708698 0.19737608942983675 0.018111192488420604 -0.28372325872473886 -1.0464748541711246 1.9165977041287463 -0.48018783501082973 0.50016550155779893 -0.25515025297293925 0.060788212326346902 -0.00030387862240604667 -0.046668076554878854 0.038970218008807872 0.44000460022609245 3.0432812117488006 0.12682175162096884 1.0984971577912805 0.55129849852908452 -1.5104971638468228 0.86924477258190835 0.44877965327703473 0.075691550911600375 0.86407427387777358 1.0148227677063602 0.40763556673413232 4.6514768102820154 3.5052633753345073 -0.68127558303457925 2.7001026588517267
leaf_weight=4918 58531 135511 2462 53109 72937 1999 3260 817 2630 41796 43194 79851 35377 22401 804 365 40522 8269 15734 699 7920 8228 1727 1260 236 272 486 342 380 221
leaf_count=4918 58531 135511 2462 53109 72937 1999 3260 817 2630 41796 43194 79851 35377 22401 804 365 40522 8269 15734 699 7920 8228 1727 1260 236 272 486 342 380 221
internal_value=4.20911e-05 -0.0693067 0.251443 0.21928 -0.0178199 0.04812 0.583464 1.4363 -0.167822 0.0272523 -0.0945838 0.10208 -0.12796 -0.207902 0.0447674 1.25474 0.337993 0.522082 0.328569 0.223172 0.676095 0.0468281 0.921813 1.01324 1.64375 2.63022 3.46581 0.595508 1.63365 0.564546
internal_weight=646258 506532 139726 134067 371021 232078 8706 4077 4629 223372 84990 138382 138943 95338 54278 1169 79789 30648 20652 49141 8619 43605 9996 5659 2254 994 722 3405 943 601
internal_count=646258 506532 139726 134067 371021 232078 8706 4077 4629 223372 84990 138382 138943 95338 54278 1169 79789 30648 20652 49141 8619 43605 9996 5659 2254 994 722 3405 943 601
is_linear=0
shrinkage=0.1


Tree=23
num_leaves=31
num_cat=0
split_feature=4 38 38 41 34 41 38 35 26 30 39 42 36 41 26 36 30 42 38 38 41 34 41 38 41 38 39 38 38 34
split_gain=944245 403769 400103 386052 380147 507885 452262 419904 400982 316776 358630 277453 261008 229465 209622 255339 297030 224886 484707 207240 182877 171581 320722 338377 272450 192161 143417 142432 135421 128636
threshold=1.0000000180025095e-35 166.50000000000003 515.00000000000011 0.99910941564652533 1.0000000180025095e-35 0.90957600733138022 149.00000000000003 1.0000000180025095e-35 1.0000000180025095e-35 1.0000000180025095e-35 4.5000000000000009 1.0000000180025095e-35 1.0000000180025095e-35 0.99962096909567 1.0000000180025095e-35 1.0000000180025095e-35 1.0000000180025095e-35 1.0000000180025095e-35 257.50000000000006 161.50000000000003 0.79502377449543216 1.0000000180025095e-35 0.96154905744493957 150.50000000000003 0.9743007753304328 157.50000000000003 2.5000000000000004 267.50000000000006 130.50000000000003 1.0000000180025095e-35
decision_type=2 2 2 2 2 2 2 2 2 2 2 2 2 2 2 2 2 2 2 2 2 2 2 2 2 2 2 2 2 2
left_child=1 9 3 4 6 11 26 -7 -8 21 -11 -6 -4 14 15 -3 -17 18 -16 -12 -19 22 23 -1 -23 -26 -2 -5 -24 -14
right_child=2 13 12 27 5 7 8 -9 -10 10 19 -13 29 -15 17 16 -18 20 -20 -21 -22 24 28 -25 25 -27 -28 -29 -30 -31
leaf_value=0.9554921952451837 -0.37128953218713023 -0.18958959136189155 -1.3089174614674925 1.4135289265811393 -0.16695336600543034 -0.13547796759283087 -0.043829531241784757 0.45186919702078665 0.23210685306750542 -0.23980798407566592 1.2901953431006155 -0.46957993910083495 0.2034733043644299 2.8636011996374116 0.62533138653810538 0.72806099432833626 0.18517198130218304 -0.56812535340901937 2.4775636714304445 -2.2302792284370128 0.44036416712877602 -0.23600542483249376 -1.4889402273593559 -0.22742451094043348 0.41625499332227389 2.7216649807598934 -0.074367629020365297 -1.2944928879819007 0.34896122795803752 1.9576637723415116
leaf_weight=10099 38175 12064 372 2227 62066 38972 153635 17699 80129 36985 2209 59186 548 357 9564 13376 40871 1996 1657 180 18065 8972 1049 3179 1121 533 28347 212 648 1765
leaf_count=10099 38175 12064 372 2227 62066 38972 153635 17699 80129 36985 2209 59186 548 357 9564 13376 40871 1996 1657 180 18065 8972 1049 3179 1121 533 28347 212 648 1765
internal_value=4.06474e-05 0.208234 -0.0701388 -0.0769401 -0.0833417 -0.199171 -0.0147112 0.047962 0.0507558 0.014947 -0.163096 -0.314675 1.14695 0.336449 0.327176 0.226508 0.319046 0.540555 0.899046 1.02412 0.34 0.28877 0.506834 0.672284 -0.018563 1.16037 -0.244765 1.17771 -0.787345 1.54233
internal_weight=646258 162925 483333 480648 478209 177923 300286 56671 233764 64975 39374 121252 2685 97950 97593 66311 54247 31282 11221 2389 20061 25601 14975 13278 10626 1654 66522 2439 1697 2313
internal_count=646258 162925 483333 480648 478209 177923 300286 56671 233764 64975 39374 121252 2685 97950 97593 66311 54247 31282 11221 2389 20061 25601 14975 13278 10626 1654 66522 2439 1697 2313
is_linear=0
shrinkage=0.1


Tree=24
num_leaves=31
num_cat=0
split_feature=7 38 30 39 7 38 38 24 38 34 38 38 41 41 38 35 34 41 26 38 35 38 38 23 41 38 36 39 41 38
split_gain=832397 413281 303540 439799 290973 243030 232980 215958 209407 202790 336484 712789 402480 287582 268616 213704 202614 324278 297314 435904 195486 193047 188056 180832 179081 165180 152687 125680 123012 122574
threshold=12.850000000000003 166.50000000000003 1.0000000180025095e-35 4.5000000000000009 3.7500000000000004 164.50000000000003 161.50000000000003 1.0000000180025095e-35 515.00000000000011 1.0000000180025095e-35 132.50000000000003 150.50000000000003 0.93527994525479063 0.97968707401335398 157.50000000000003 1.0000000180025095e-35 1.0000000180025095e-35 0.91890954976323724 1.0000000180025095e-35 172.50000000000003 1.0000000180025095e-35 322.50000000000006 435.00000000000006 1.0000000180025095e-35 0.89352800066326765 175.50000000000003 1.0000000180025095e-35 4.5000000000000009 0.99962096909567 140.50000000000003
decision_type=2 2 2 2 2 2 2 2 2 2 2 2 2 2 2 2 2 2 2 2 2 2 2 2 2 2 2 2 2 2
left_child=1 2 9 -4 21 27 29 23 16 10 12 -12 -1 15 -15 -11 18 -18 22 -20 -19 28 -7 25 -25 -6 -10 -2 -3 -5
right_child=5 4 3 6 7 8 -8 -9 26 13 11 -13 -14 14 -16 -17 17 20 19 -21 -22 -23 -24 24 -26 -27 -28 -29 -30 -31
leaf_value=0.2658746197577817 -0.21918334284971805 0.4093761138308768 -0.21958366652128791 2.4227162793648755 0.73883050287088459 -0.0851771556269319 -1.8712271885786738 2.9207931550690254 -1.1296821595025142 -0.4493210795323867 1.2748328338604873 -0.18351914563593319 -1.2915560658925569 0.30428614707573237 2.7630770901647903 0.38668350522049438 -0.27901560743849119 -0.046656014995581564 1.1703197501107965 0.13699328334479888 0.55803917910727052 1.3791989991151219 1.481036075451839 -0.13646060588207806 0.23205584457421385 0.21344614049901769 1.292984661641851 0.14228144502813733 3.1712979507965993 0.85237230567618405
leaf_weight=7906 138388 36444 59885 603 6665 93060 279 282 302 11074 8475 5543 2099 1544 623 4223 63258 16386 4478 46110 7934 2233 772 31112 22886 58527 1846 10337 161 2823
leaf_count=7906 138388 36444 59885 603 6665 93060 279 282 302 11074 8475 5543 2099 1544 623 4223 63258 16386 4478 46110 7934 2233 772 31112 22886 58527 1846 10337 161 2823
internal_value=3.78617e-05 0.136871 -0.0168832 -0.154165 0.238923 -0.0940932 0.902989 0.161623 -0.0305961 0.193537 0.382037 0.698199 -0.0609631 -0.0657657 1.01212 -0.218517 -0.0396977 -0.159704 0.0330764 0.228484 0.150631 0.476701 -0.0722755 0.15507 0.0197293 0.26717 0.952 -0.194059 0.42161 1.12939
internal_weight=646258 263387 105077 63590 158310 382871 3705 119472 234146 41487 24023 14018 10005 17464 2167 15297 231998 87578 144420 50588 24320 38838 93832 119190 53998 65192 2148 148725 36605 3426
internal_count=646258 263387 105077 63590 158310 382871 3705 119472 234146 41487 24023 14018 10005 17464 2167 15297 231998 87578 144420 50588 24320 38838 93832 119190 53998 65192 2148 148725 36605 3426
is_linear=0
shrinkage=0.1


Tree=25
num_leaves=31
num_cat=0
split_feature=18 23 41 43 42 40 41 39 34 39 41 41 40 41 17 30 27 41 30 18 42 32 37 39 39 33 42 41 39 26
split_gain=693735 380354 346846 353830 265906 465031 397954 297452 435355 262326 248571 253241 202306 202380 200343 194224 192010 251760 187687 229697 186600 275510 198936 178697 177589 171988 171909 379386 207704 168070
threshold=10.477380952380955 1.0000000180025095e-35 0.89239170242480303 1.0000000180025095e-35 1.0000000180025095e-35 3.5000000000000004 0.77188087971763408 3.5000000000000004 1.0000000180025095e-35 3.5000000000000004 0.97141462418597568 0.99858279282217999 3.5000000000000004 0.97886091158708533 0.23333333333333162 1.0000000180025095e-35 1.0000000180025095e-35 0.99469016546822542 1.0000000180025095e-35 1.0690476190476192 1.0000000180025095e-35 1.0000000180025095e-35 1.0000000180025095e-35 2.5000000000000004 1.5000000000000002 1.0000000180025095e-35 1.0000000180025095e-35 0.87795470895103234 2.5000000000000004 1.0000000180025095e-35
decision_type=2 2 2 2 2 2 2 2 2 2 2 2 2 2 2 2 2 2 2 2 2 2 2 2 2 2 2 2 2 2
left_child=1 4 3 20 5 7 25 8 -1 -5 14 -12 24 -14 -8 -9 17 26 -7 -20 21 -3 -22 -15 -4 -6 29 -28 -29 -2
right_child=16 2 12 9 6 18 10 15 -10 -11 11 -13 13 23 -16 -17 -18 -19 19 -21 22 -23 -24 -25 -26 -27 27 28 -30 -31
leaf_value=0.63809192726935915 -0.097622025058331952 -0.14732265133256583 -0.91429983581691288 0.23551687542992081 -0.2461924046936752 0.74250801324686677 0.73790198811079077 -0.4677043570517585 0.022005025708740297 2.4543274088982794 -0.13092988460357607 0.81736061200581889 0.4732590486458319 -2.5210830557185253 0.220344873583741 0.1792637847086791 -0.44431268890894887 0.37094700681220716 7.3029232358510514 2.4390911824676391 -1.2173138179409633 0.64192050296930547 -0.305936460177203 2.6229454021227818 0.14039770668661516 -1.6550789870379252 -0.38907595951821039 -0.20815112494760829 0.073209000476196023 0.16546177387080988
leaf_weight=34505 78966 46674 1645 1404 19405 566 8533 6359 17181 858 31151 3095 3292 73 60533 17159 16308 11304 112 710 2612 4885 28741 796 53065 906 55389 51784 53182 35065
leaf_count=34505 78966 46674 1645 1404 19405 566 8533 6359 17181 858 31151 3095 3292 73 60533 17159 16308 11304 112 710 2612 4885 28741 796 53065 906 55389 51784 53182 35065
internal_value=3.65831e-05 0.0970768 -0.0268455 -0.155853 0.186233 0.332642 0.0955208 0.299151 0.433302 1.07785 0.175074 -0.0452063 0.159801 0.8319 0.284298 0.0043185 -0.110584 -0.0915319 2.14574 3.10987 -0.189523 -0.0725342 -0.381899 2.18842 0.108669 -0.309116 -0.110586 -0.177334 -0.0655981 -0.0167219
internal_weight=646258 344260 144045 85174 200215 76592 123623 75204 51686 2262 103312 34246 58871 4161 69066 23518 301998 285690 1388 822 82912 51559 31353 869 54710 20311 274386 160355 104966 114031
internal_count=646258 344260 144045 85174 200215 76592 123623 75204 51686 2262 103312 34246 58871 4161 69066 23518 301998 285690 1388 822 82912 51559 31353 869 54710 20311 274386 160355 104966 114031
is_linear=0
shrinkage=0.1


Tree=26
num_leaves=31
num_cat=0
split_feature=7 17 26 39 42 35 34 40 40 30 34 29 21 27 22 40 30 35 26 22 42 26 34 29 32 22 35 40 30 39
split_gain=614370 251655 193863 295376 297890 247053 242090 202819 184526 163708 150137 143163 135106 130167 113133 244100 108568 102486 177493 174222 157153 118621 105416 95803.5 98711.1 123795 144392 101383 92021.7 78261.6
threshold=6.5500000000000007 17.783333333333342 1.0000000180025095e-35 4.5000000000000009 1.0000000180025095e-35 1.0000000180025095e-35 1.0000000180025095e-35 2.5000000000000004 2.5000000000000004 1.0000000180025095e-35 1.0000000180025095e-35 1.0000000180025095e-35 1.0000000180025095e-35 1.0000000180025095e-35 1.0000000180025095e-35 3.5000000000000004 1.0000000180025095e-35 1.0000000180025095e-35 1.0000000180025095e-35 1.0000000180025095e-35 1.0000000180025095e-35 1.0000000180025095e-35 1.0000000180025095e-35 1.0000000180025095e-35 1.0000000180025095e-35 1.0000000180025095e-35 1.0000000180025095e-35 3.5000000000000004 1.0000000180025095e-35 2.5000000000000004
decision_type=2 2 2 2 2 2 2 2 2 2 2 2 2 2 2 2 2 2 2 2 2 2 2 2 2 2 2 2 2 2
left_child=8 2 5 4 6 7 -4 10 12 -6 -2 13 17 -7 15 -5 -9 18 22 -19 -20 -21 -1 24 25 26 -10 -27 -3 -30
right_child=1 28 3 14 9 11 -8 16 23 -11 -12 -13 -14 -15 -16 -17 -18 19 20 21 -22 -23 -24 -25 -26 27 -28 -29 29 -31
leaf_value=0.086016443028105211 -0.091865654351452275 -0.29309864561715127 0.3974267895905757 0.7779626995625003 -0.3355286922282073 0.18353877067432389 -0.14982555921683235 0.30683328915610858 -0.062878170631897989 0.016272492427341464 -0.29621852236957363 -0.8760813090798838 -1.1630244524944597 -0.28307865100392265 0.3335314491381613 3.1943344375370324 -0.019557759573181666 -0.017319723969672182 0.70709002685304689 0.95620691244353029 0.13585651490504752 0.24714947661222039 -0.24778629968223109 -0.75369901105390125 0.9111148202652315 0.52548772078581718 0.68035906025595305 1.5905696218694683 -0.20824389248234662 -0.018115607346698197
leaf_weight=28495 105089 39904 33243 3206 17067 59117 10680 13555 8670 58784 54648 1426 790 6650 4184 480 41057 6692 7233 5417 14411 4181 14162 666 4125 10890 3741 973 41727 44995
leaf_count=28495 105089 39904 33243 3206 17067 59117 10680 13555 8670 58784 54648 1426 790 6650 4184 480 41057 6692 7233 5417 14411 4181 14162 666 4125 10890 3741 973 41727 44995
internal_value=3.47096e-05 -0.0442324 -0.00610841 0.0961164 0.05712 -0.0524547 0.26436 -0.104902 0.214789 -0.0628886 -0.161779 0.114854 0.137539 0.136353 0.689522 1.09341 0.0614584 0.150302 0.0935396 0.374341 0.326775 0.647391 -0.0248083 0.431072 0.458882 0.381997 0.16119 0.612972 -0.167427 -0.109599
internal_weight=646258 535812 409186 127644 119774 281542 43923 214349 110446 75851 159737 67193 81381 65767 7870 3686 54612 80591 64301 16290 21644 9598 42657 29065 28399 24274 12411 11863 126626 86722
internal_count=646258 535812 409186 127644 119774 281542 43923 214349 110446 75851 159737 67193 81381 65767 7870 3686 54612 80591 64301 16290 21644 9598 42657 29065 28399 24274 12411 11863 126626 86722
is_linear=0
shrinkage=0.1


Tree=27
num_leaves=31
num_cat=0
split_feature=16 36 27 41 42 41 22 40 16 41 36 25 40 41 24 42 41 34 41 40 25 35 26 34 30 26 30 41 42 34
split_gain=523289 286797 249871 344441 221934 522440 221161 186009 160884 136004 134469 151277 209668 129755 128665 122022 263677 181998 96851.5 162079 101448 83768.8 104061 121109 155380 80290.7 77336 149520 127826 107044
threshold=3.1500000000000008 1.0000000180025095e-35 1.0000000180025095e-35 0.9983326118239767 1.0000000180025095e-35 0.83576032339691164 1.0000000180025095e-35 3.5000000000000004 -3.6499999999999999 0.99525702529557203 1.0000000180025095e-35 1.0000000180025095e-35 2.5000000000000004 0.99936182647694893 1.0000000180025095e-35 1.0000000180025095e-35 0.73478593522388869 1.0000000180025095e-35 0.88676585299325972 3.5000000000000004 1.0000000180025095e-35 1.0000000180025095e-35 1.0000000180025095e-35 1.0000000180025095e-35 1.0000000180025095e-35 1.0000000180025095e-35 1.0000000180025095e-35 0.69377263722859905 1.0000000180025095e-35 1.0000000180025095e-35
decision_type=2 2 2 2 2 2 2 2 2 2 2 2 2 2 2 2 2 2 2 2 2 2 2 2 2 2 2 2 2 2
left_child=7 13 3 4 6 -6 -3 8 -1 -4 11 12 -10 14 18 17 -17 -12 20 -20 -2 26 -23 24 -24 -15 28 -28 29 -9
right_child=1 2 9 -5 5 -7 -8 21 10 -11 15 -13 -14 25 -16 16 -18 -19 19 -21 -22 22 23 -25 -26 -27 27 -29 -30 -31
leaf_value=0.70432247945308879 -0.12415100684137637 -0.049252016433983803 -0.26856269470185484 1.0171217598218443 -0.31575007468836835 0.029153039360277824 0.19977401884842427 1.250272511997117 0.090861794553284816 -1.1954831759764404 0.51465185642767219 -0.28602361239535767 1.8059050872042766 1.9248422311179958 0.7820354357254734 -0.4708157109783252 0.18998581750371984 -0.0023101344423233318 -0.1022803027628624 1.7912938290273595 -0.36847112658531583 0.65836238188214236 0.48187050781941609 0.24870813538115552 3.9851887282895122 -0.25019458013453655 -1.1748815984756311 0.72919907572478793 0.41637877944716006 4.8390442285367428
leaf_weight=5236 27886 59183 18189 3391 58042 180469 89737 207 9924 1733 21683 13929 767 470 1343 6933 46758 9928 41535 456 43521 1076 183 240 412 265 642 1149 832 139
leaf_count=5236 27886 59183 18189 3391 58042 180469 89737 207 9924 1733 21683 13929 767 470 1343 6933 46758 9928 41535 456 43521 1076 183 240 412 265 642 1149 832 139
internal_value=3.22031e-05 -0.0429456 -0.0038016 0.0138084 0.00502425 -0.0547806 0.100808 0.188436 0.162807 -0.349251 0.137006 -0.0688668 0.214061 -0.182178 -0.190666 0.196425 0.104651 0.352296 -0.202193 -0.0816749 -0.273062 0.793083 1.30938 2.14651 2.91031 1.14137 0.460437 0.0463895 1.08937 2.7018
internal_weight=646258 526220 410744 390822 387431 238511 148920 120038 115158 19922 109922 24620 10691 115476 114741 85302 53691 31611 113398 41991 71407 4880 1911 835 595 735 2969 1791 1178 346
internal_count=646258 526220 410744 390822 387431 238511 148920 120038 115158 19922 109922 24620 10691 115476 114741 85302 53691 31611 113398 41991 71407 4880 1911 835 595 735 2969 1791 1178 346
is_linear=0
shrinkage=0.1


Tree=28
num_leaves=31
num_cat=0
split_feature=16 38 41 23 31 41 38 39 39 36 41 35 38 42 38 22 25 32 41 38 38 38 38 22 36 22 41 38 38 38
split_gain=455769 321408 341032 248068 412821 428600 267246 260384 230770 225940 176929 227277 222750 211615 178310 291675 305463 160449 233870 148244 225720 138855 211962 293820 137513 132894 129667 120466 116689 109740
threshold=10.550000000000002 149.00000000000003 0.99962096909567 1.0000000180025095e-35 1.0000000180025095e-35 0.97755752356778014 515.00000000000011 2.5000000000000004 1.5000000000000002 1.0000000180025095e-35 0.97239551107156108 1.0000000180025095e-35 397.50000000000006 1.0000000180025095e-35 260.50000000000006 1.0000000180025095e-35 1.0000000180025095e-35 1.0000000180025095e-35 0.93316893914538479 266.50000000000006 262.00000000000006 139.00000000000003 130.50000000000003 1.0000000180025095e-35 1.0000000180025095e-35 1.0000000180025095e-35 0.88676585299325972 65.000000000000014 515.00000000000011 134.50000000000003
decision_type=2 2 2 2 2 2 2 2 2 2 2 2 2 2 2 2 2 2 2 2 2 2 2 2 2 2 2 2 2 2
left_child=1 17 3 4 5 -3 7 -5 -6 -8 13 -12 19 14 -2 28 -17 21 24 20 -13 22 27 -24 -19 -21 -15 -1 -16 -20
right_child=10 2 -4 6 8 -7 9 -9 -10 -11 11 12 -14 26 15 16 -18 18 29 25 -22 -23 23 -25 -26 -27 -28 -29 -30 -31
leaf_value=-1.3289328889551413 -0.070936102013644087 0.21222368258625407 2.4139989859796778 -0.16767276549832727 2.1087806349781379 -0.32507472064729948 -1.2921103068250668 0.13986400408551075 0.53957938025964103 1.6618712679932111 -0.032042689021212475 0.45025066892399157 2.5283680286807844 -0.31647161933856094 -0.27697770311701858 1.5794645019249103 0.19537065023363426 -0.4286474474980897 -1.9473018609740458 0.6941887860855287 4.5817426546296076 -0.39671236326611342 -0.42539626698437516 0.82668617620281715 0.92949508027632888 -1.1873555906497237 -0.11648717442823242 -0.13895832963268281 1.1361336820071199 0.18557815510414055
leaf_weight=870 110711 112395 652 52731 980 17105 308 57606 21055 1603 46435 10143 494 62101 6124 2816 3675 918 553 581 133 17493 2868 5405 3955 1057 67842 36577 645 427
leaf_count=870 110711 112395 652 52731 980 17105 308 57606 21055 1603 46435 10143 494 62101 6124 2816 3675 918 553 581 133 17493 2868 5405 3955 1057 67842 36577 645 427
internal_value=3.1621e-05 0.0813566 0.131528 0.125877 0.209339 0.141253 0.0132011 -0.00711065 0.609462 1.18534 -0.0866873 0.0695517 0.449725 -0.122895 -0.02943 0.317094 0.795985 -0.110733 0.390123 0.363331 0.504164 -0.157114 -0.0654341 0.392628 0.673606 -0.519954 -0.212063 -0.16664 -0.142178 -1.01873
internal_weight=646258 333501 264435 263783 151535 129500 112248 110337 22035 1911 312757 58843 12408 253914 123971 13260 6491 69066 5853 11914 10276 63213 45720 8273 4873 1638 129943 37447 6769 980
internal_count=646258 333501 264435 263783 151535 129500 112248 110337 22035 1911 312757 58843 12408 253914 123971 13260 6491 69066 5853 11914 10276 63213 45720 8273 4873 1638 129943 37447 6769 980
is_linear=0
shrinkage=0.1


Tree=29
num_leaves=31
num_cat=0
split_feature=38 38 29 16 16 24 22 38 31 25 38 38 38 34 20 38 38 31 26 35 30 35 38 34 38 42 38 29 26 22
split_gain=412757 313658 292357 276755 230066 196777 188294 287443 342922 224281 266187 150249 173372 133765 121056 98331.8 185135 94756.7 93346.9 224386 138823 168776 127381 173398 112707 117736 87187.1 81066.5 80156.2 75551.5
threshold=240.50000000000003 241.50000000000003 1.0000000180025095e-35 9.0500000000000025 2.4500000000000006 1.0000000180025095e-35 1.0000000180025095e-35 130.50000000000003 1.0000000180025095e-35 1.0000000180025095e-35 223.50000000000003 515.00000000000011 750.00000000000011 1.0000000180025095e-35 1.0000000180025095e-35 345.00000000000006 355.00000000000006 1.0000000180025095e-35 1.0000000180025095e-35 1.0000000180025095e-35 1.0000000180025095e-35 1.0000000180025095e-35 159.00000000000003 1.0000000180025095e-35 179.50000000000003 1.0000000180025095e-35 104.50000000000001 1.0000000180025095e-35 1.0000000180025095e-35 1.0000000180025095e-35
decision_type=2 2 2 2 2 2 2 2 2 2 2 2 2 2 2 2 2 2 2 2 2 2 2 2 2 2 2 2 2 2
left_child=3 29 4 5 15 6 9 27 -9 10 -1 13 -13 -6 -11 17 -17 -3 19 26 21 -20 -22 -24 -21 -26 -5 -8 -7 -2
right_child=1 2 -4 18 11 28 7 8 -10 14 -12 12 -14 -15 -16 16 -18 -19 20 24 22 -23 23 -25 25 -27 -28 -29 -30 -31
leaf_value=0.06315784472593014 -0.31628912799429187 0.33664363109895767 -0.86593184134520296 -0.50630146422472466 0.20433015264505616 0.53403707624804497 -0.18712946117699042 0.099828167145780161 0.55242714458649045 -1.4360295335310822 1.1332986154030225 1.1206792042040685 -1.0308429115586137 -0.072007000831789125 -0.15830457339864354 2.81540304908658 0.71903861163662497 1.3421912170870647 -0.10822592599174077 -0.10292129444694216 -0.14291506932407111 -0.82502269168855202 0.26972521757708823 -0.11953974965900283 0.56351026015288253 0.068467657769832921 -0.17268184735357353 -1.5312956426642412 2.608333795172546 1.7411034736337361
leaf_weight=33264 201 10416 2666 8253 46144 344 22107 102042 20025 749 2498 2626 436 28235 65571 504 2549 1029 18991 20233 23657 3971 33757 17311 6977 15423 153842 457 407 1573
leaf_count=33264 201 10416 2666 8253 46144 344 22107 102042 20025 749 2498 2626 436 28235 65571 504 2549 1029 18991 20233 23657 3971 33757 17311 6977 15423 153842 457 407 1573
internal_value=3.02744e-05 0.190921 0.166209 -0.033428 0.196147 0.0449979 0.0400746 0.113469 0.174081 -0.0639118 0.137938 0.127698 0.814086 0.0994303 -0.172756 0.561735 1.06592 0.42716 -0.0976033 -0.135981 -0.0171729 -0.232218 0.0489097 0.137773 0.0681548 0.222678 -0.189671 -0.21442 1.66016 1.50795
internal_weight=646258 96379 94605 549879 91939 247464 246713 144631 122067 102082 35762 77441 3062 74379 66320 14498 3053 11445 302415 204728 97687 22962 74725 51068 42633 22400 162095 22564 751 1774
internal_count=646258 96379 94605 549879 91939 247464 246713 144631 122067 102082 35762 77441 3062 74379 66320 14498 3053 11445 302415 204728 97687 22962 74725 51068 42633 22400 162095 22564 751 1774
is_linear=0
shrinkage=0.1


Tree=30
num_leaves=31
num_cat=0
split_feature=7 36 38 27 41 42 41 38 25 38 16 41 38 41 35 34 38 18 17 41 19 32 38 23 38 38 34 30 38 41
split_gain=362649 257855 326865 233329 344046 199571 162239 147838 125740 403424 146223 128666 152725 97188.8 86719.8 75754.5 140190 75340.9 75297 70477.5 94741.9 59943.6 56054.6 75759.7 54556.2 86400.3 268429 53132.6 70893.1 51825.8
threshold=4.1500000000000012 1.0000000180025095e-35 650.00000000000011 1.0000000180025095e-35 0.99858279282217999 1.0000000180025095e-35 0.99469016546822542 223.50000000000003 1.0000000180025095e-35 186.50000000000003 10.350000000000003 0.9078146698313948 302.50000000000006 0.99936182647694893 1.0000000180025095e-35 1.0000000180025095e-35 154.50000000000003 1.585714285714287 -1.4666666666666661 0.97616283211849042 156.85000000000005 1.0000000180025095e-35 108.00000000000001 1.0000000180025095e-35 322.50000000000006 355.00000000000006 1.0000000180025095e-35 1.0000000180025095e-35 230.50000000000003 0.99858279282217999
decision_type=2 2 2 2 2 2 2 2 2 2 2 2 2 2 2 2 2 2 2 2 2 2 2 2 2 2 2 2 2 2
left_child=7 8 3 4 5 -3 -5 18 9 22 14 15 13 -13 -11 16 -10 24 19 -1 29 -6 -2 -24 27 26 -26 -9 -29 -21
right_child=1 2 -4 6 21 -7 -8 17 11 10 -12 12 -14 -15 -16 -17 -18 -19 -20 20 -22 -23 23 -25 25 -27 -28 28 -30 -31
leaf_value=0.4847511478530584 0.46466393599467715 0.10133053487217986 2.0453259892039255 -0.22507410509588441 1.2222695757779767 -0.039971235583885392 -1.1548977126524558 1.081343308813898 0.059218970097249815 0.73111014383324413 0.18234481939562985 -0.10436202258505728 1.7470260541171219 1.5368151992224464 1.8867484994585959 -0.45540025852743282 -0.40777204885261248 0.22409995874311162 0.083423776910501221 -0.20829009951703364 -2.3389489022024135 -0.16074228880053523 -0.10993517792137855 -0.40881074125903338 6.405399623977357 0.79248213149825697 0.64948364666398661 1.3393053955782577 0.29018063184122961 1.4420740432780652
leaf_weight=9172 1323 162031 786 19720 2777 260895 2073 1601 11160 4028 6188 21477 468 366 774 24013 15160 6035 45909 1232 187 353 29324 11932 121 1056 242 741 4890 224
leaf_count=9172 1323 162031 786 19720 2777 260895 2073 1601 11160 4028 6188 21477 468 366 774 24013 15160 6035 45909 1232 187 353 29324 11932 121 1056 242 741 4890 224
internal_value=2.82676e-05 -0.0263743 0.00914938 0.00557122 0.0218962 0.0141643 -0.31357 0.212565 -0.152645 -0.0364116 0.503722 -0.238356 -0.0384601 -0.0767935 0.917733 -0.326961 -0.209767 0.495333 0.139348 0.376715 -0.226324 1.06629 -0.175833 -0.196383 0.684499 1.25136 2.58045 0.573116 0.428451 0.0464276
internal_weight=646258 574848 448635 447849 426056 422926 21793 71410 126213 53569 10990 72644 22311 21843 4802 50333 26320 14686 56724 10815 1643 3130 42579 41256 8651 1419 363 7232 5631 1456
internal_count=646258 574848 448635 447849 426056 422926 21793 71410 126213 53569 10990 72644 22311 21843 4802 50333 26320 14686 56724 10815 1643 3130 42579 41256 8651 1419 363 7232 5631 1456
is_linear=0
shrinkage=0.1


Tree=31
num_leaves=31
num_cat=0
split_feature=38 41 27 29 26 35 39 39 38 39 35 41 35 41 43 38 36 42 41 27 38 39 38 41 18 38 23 18 38 23
split_gain=313146 294674 287687 268878 240813 480915 264708 229853 223280 253307 339507 302898 199738 198801 173548 166705 165951 180886 159445 156078 149573 134751 187065 131660 148907 121773 114907 93413.1 78789.7 63771
threshold=240.50000000000003 0.99885990822051729 1.0000000180025095e-35 1.0000000180025095e-35 1.0000000180025095e-35 1.0000000180025095e-35 1.5000000000000002 4.5000000000000009 241.50000000000003 3.5000000000000004 1.0000000180025095e-35 0.98051992972798574 1.0000000180025095e-35 0.97141462418597568 1.0000000180025095e-35 104.50000000000001 1.0000000180025095e-35 1.0000000180025095e-35 0.84891291959584647 1.0000000180025095e-35 123.50000000000001 2.5000000000000004 120.50000000000001 0.93109543463445221 9.1071428571428594 187.50000000000003 1.0000000180025095e-35 11.292857142857146 164.50000000000003 1.0000000180025095e-35
decision_type=2 2 2 2 2 2 2 2 2 2 2 2 2 2 2 2 2 2 2 2 2 2 2 2 2 2 2 2 2 2
